tree
version=v4
num_class=1
num_tree_per_iteration=1
label_index=0
max_feature_idx=8
objective=lambdarank
feature_names=lexical_score semantic_score personalization_score title_match_ratio tag_overlap category_affinity price_distance_norm query_len desc_len
feature_infos=[0:8] [0.68739998340606689:0.87610000371932983] [0:12] [0:1] [0:2] [0:5] [0:3.2033627033233643] [1:3] [3:10]
tree_sizes=3410 3381 3385 3392 3374 3387 3355 3377 3386 3388 3401 3381 3391 3379 3383 3406 3403 3383 3395 3382 3388 3394 3396 3392 3394 3404 3399 3404 3411 3417 3419 3432 3428 3432 3419 3427 3423 3405 3447 3427 3442 3442 3455 3403 3450 3440 3427 3460 3447 3453 3450 3455 3450 3448 3445 3460 3456 3461 3445 3458 3461 3445 3473 3461 3460 3465 3474 3465 3454 3472 3472 3478 3475 3461 3483 3489 3485 3488 3492 3494 3496 3507 3506 3508 3505 3502 3508 3498 3541 3513 3528 3531 3541 3555 3528 3526 3524 3556 3530 3506

Tree=0
num_leaves=31
num_cat=0
split_feature=0 7 1 8 1 6 6 1 0 0 1 1 1 1 8 1 1 1 8 1 1 8 1 1 1 2 1 2 2 1
split_gain=135.384 18.346 17.3739 12.8302 9.75189 6.4928 8.97456 4.90622 4.00809 3.55376 5.4498 2.77147 4.38036 2.12329 2.49343 2.36929 1.92823 3.38189 1.78367 1.75563 1.61794 1.21286 0.976473 1.9806 1.56431 0.841953 0.8044 0.747275 0.946816 0.701978
threshold=1.5000000000000002 1.5000000000000002 0.72914999723434459 7.5000000000000009 0.82925000786781322 0.79587382078170787 0.51788753271102916 0.77574998140335094 3.5000000000000004 2.8500000238418584 0.80895000696182262 0.73925000429153453 0.76104998588562023 0.7511500120162965 5.5000000000000009 0.73395001888275158 0.7349500060081483 0.74024999141693126 6.5000000000000009 0.74044999480247509 0.83994999527931224 5.5000000000000009 0.75155001878738414 0.75094997882843029 0.74064999818801891 2.2266414165496831 0.74024999141693126 1.3262932896614077 1.0064471364021303 0.74244999885559093
decision_type=2 2 2 2 2 2 2 2 2 2 2 2 2 2 2 2 2 2 2 2 2 2 2 2 2 2 2 2 2 2
left_child=1 2 -1 5 -3 6 7 13 9 -2 -11 25 22 14 -4 -16 -17 -18 -12 -19 -20 -8 23 24 26 27 -13 28 -5 -21
right_child=8 4 3 11 -6 -7 21 -9 -10 10 18 12 -14 -15 15 16 17 19 20 29 -22 -23 -24 -25 -26 -27 -28 -29 -30 -31
leaf_value=-0.09999999999999995 0.082461134317601603 -0.099999999999999978 -0.099999999999999936 0.059178157203516192 0.10000000000000001 -0.10000000000000001 -0.099999999999999561 0.070976566499832999 0.099772794688324964 -0.099999999999999839 0.098635363945029655 -0.099999999999998632 0.084506523340978953 -0.099999999999999964 -0.099999999999999895 0.05669566842414564 -0.099999999999999881 0.0999999999999997 -0.099999999999999672 -0.099999999999999575 0.072728586714943075 0.077836285424424181 -0.099999999999999839 0.099999999999999645 -0.099999999999999839 -0.099999999999998798 0.073503264076930183 0.093192308206901525 -0.09999999999999909 -0.0018243954588001731
leaf_weight=6.4239918191451606 4.2305303439497974 16.740168499411087 1.3099521968979386 2.5669268100755285 0.63252252340316673 2.9933145272079846 0.10017641540616695 0.90313862916082221 20.417392805218697 0.80240737204439971 1.0330510409548876 0.088491149479523523 1.1079282923601566 1.7877380863064898 0.83148244419135142 0.91295466199517239 1.0449105580337348 0.42567941546440158 0.27023155172355462 0.20361263584345568 0.27206678688526154 2.2335336250253022 0.51776784809771914 0.27566799521446228 0.61836208496242762 0.073082536342553683 0.27256935182958841 2.1149841994047165 0.096948065329342969 1.7215213488088918
leaf_count=790 82 3000 245 81 13 412 12 26 46 107 16 7 26 279 129 33 130 3 24 45 6 44 64 5 93 12 6 22 14 178
internal_value=-1.01871e-09 -0.0521849 -0.0275848 -0.00663084 -0.0927182 -0.0344193 -0.0173118 -0.0396544 0.0888182 0.0549723 0.00606391 0.0453617 0.0065144 -0.0517831 -0.0384192 -0.0227255 -0.00781319 -0.0251567 0.0600878 0.00811036 -0.0133434 0.0702025 -0.0422259 -0.0183921 -0.0517147 0.0684269 0.0309799 0.0710026 0.0533851 -0.012208
internal_weight=73.0231 45.9974 28.6247 22.2007 17.3727 14.468 11.4747 9.14099 27.0257 6.60829 2.37776 7.73273 2.88079 8.23785 6.45011 5.14016 4.30868 3.39572 1.57535 2.35081 0.542298 2.33371 1.77286 1.25509 0.979423 4.85194 0.361061 4.77886 2.66387 1.92513
internal_count=5950 5669 2656 1866 3013 1536 1124 1068 281 235 153 330 201 1042 763 518 389 356 46 226 30 56 175 111 106 129 13 117 95 223
is_linear=0
shrinkage=0.05


Tree=1
num_leaves=31
num_cat=0
split_feature=0 8 7 1 1 7 1 0 1 1 6 1 1 2 6 6 1 1 1 1 1 1 2 1 6 8 1 1 1 0
split_gain=231.174 53.9544 21.2154 19.2033 17.7498 11.447 9.93109 9.19685 6.99775 6.81618 5.48267 4.69773 5.62476 4.36901 4.09322 3.87572 5.67692 5.82757 3.79697 2.90131 8.98997 2.78554 2.77861 2.62324 2.63099 2.54127 2.08655 2.00513 4.79445 1.82735
threshold=2.3500000238418584 7.5000000000000009 1.5000000000000002 0.79975000023841869 0.85409998893737804 1.5000000000000002 0.73395001888275158 3.5000000000000004 0.83254998922348034 0.72914999723434459 0.79587382078170787 0.75094997882843029 0.74064999818801891 1.1194375753402712 0.18450687080621722 0.51788753271102916 0.72935000061988842 0.73155000805854808 0.84415000677108776 0.74044999480247509 0.74024999141693126 0.78575000166893016 1.4821125268936159 0.73334997892379772 0.65981587767601024 7.5000000000000009 0.7349500060081483 0.75124999880790722 0.75734999775886547 1.5000000000000002
decision_type=2 2 2 2 2 2 2 2 2 2 2 2 2 2 2 2 2 2 2 2 2 2 2 2 2 2 2 2 2 2
left_child=1 3 9 5 -4 6 -1 13 -5 -3 14 12 15 18 19 16 -11 -18 25 20 26 29 -19 24 -17 -2 -8 -13 -29 -21
right_child=7 2 4 8 -6 -7 10 -9 -10 11 -12 27 -14 -15 -16 23 17 22 -20 21 -22 -23 -24 -25 -26 -27 -28 28 -30 -31
leaf_value=-0.091985389580243382 0.058649241263561663 -0.091719434160387137 -0.092303210068195973 0.057730689374011969 0.090937145030882363 -0.091218941805382106 -0.016877625311405003 0.090445536937109744 -0.10007267746488616 0.086635757943625158 -0.091544754023423547 0.093018826253743803 -0.093201260813071285 -0.092153406648089964 0.011354538710360042 -0.1001585437703103 -0.099688708681990409 0.019072153755677512 -0.099499962383638771 -0.066059928881486832 0.080970698598965732 0.065142845620837941 -0.099463509645716541 0.082160202099789359 0.062553538951903812 -0.090956337659949579 -0.091780885700567069 -0.094330405462983088 0.055833270426040638 -0.011971716175763428
leaf_weight=10.831178292632101 7.0815743382554484 1.1132508749142314 7.2584265409968776 4.1123834270983926 1.6157622337341306 35.560796240344644 1.9111217241734366 48.838114580139518 0.84727425314486016 1.8264535591006303 3.7158052157610646 3.0734065771102896 1.08711577951908 0.63529532589018334 5.5399691183120003 0.44333048909902462 1.5059615839272718 6.0327988751232624 0.43416407704353321 9.4339356119744426 1.8737619370222089 0.48599499091506082 0.53852244094014157 3.6377938222140074 0.56513721868395805 0.29570718831382681 1.8106033205986021 0.56853165850043197 8.1731230653822404 1.8713006526231772
leaf_count=960 75 102 475 60 1 2503 38 46 7 6 318 4 97 48 96 4 21 69 5 627 3 3 10 22 10 28 188 45 58 21
internal_value=1.229e-09 -0.0407496 0.0085885 -0.0644334 -0.0589398 -0.0708987 -0.0516158 0.0821138 0.0307726 0.029567 -0.035204 0.0344854 0.0165065 0.0339407 -0.0260726 0.0247034 0.00702805 -0.010973 0.0441958 -0.0379981 -0.00834854 -0.0520682 0.00935811 0.0623792 -0.008976 0.0526525 -0.0533177 0.0582804 0.0460671 -0.057107
internal_weight=172.719 115.434 37.4396 77.9941 8.87419 73.0345 37.4737 57.2849 4.95966 28.5654 26.6425 27.4522 15.6371 8.44674 22.9267 14.55 9.90374 8.07728 7.81145 17.3867 5.59549 11.7912 6.57132 4.64626 1.00847 7.37728 3.72173 11.8151 8.74165 11.3052
internal_count=5950 5748 924 4824 476 4757 2254 202 67 448 1294 346 239 156 976 142 106 100 108 880 229 651 79 36 14 103 226 107 103 648
is_linear=0
shrinkage=0.05


Tree=2
num_leaves=31
num_cat=0
split_feature=0 8 7 1 1 1 0 7 1 1 2 2 7 1 4 2 1 1 1 1 8 6 1 1 6 8 1 2 1 1
split_gain=210.125 42.9887 15.214 13.9658 11.9427 7.81183 8.10254 6.53377 7.53251 6.07421 4.36552 5.37627 4.14719 16.6281 7.07093 4.06405 2.88033 2.60456 2.51356 2.51358 2.39597 2.267 2.10533 2.58061 2.05378 1.90047 1.85703 1.82736 1.84005 2.54306
threshold=1.5000000000000002 7.5000000000000009 1.5000000000000002 0.85409998893737804 0.82925000786781322 0.75554999709129345 4.3499999046325692 1.5000000000000002 0.73395001888275158 0.72914999723434459 1.2266414165496828 1.4821125268936159 1.5000000000000002 0.80895000696182262 1.0000000180025095e-35 1.2550271153450014 0.78575000166893016 0.7349500060081483 0.79069998860359203 0.72935000061988842 5.5000000000000009 0.42759820818901068 0.7511500120162965 0.75094997882843029 0.53177833557128917 7.5000000000000009 0.75185000896453869 0.66295841336250316 0.74764999747276317 0.74744999408721935
decision_type=2 2 2 2 2 2 2 2 2 2 2 2 2 2 2 2 2 2 2 2 2 2 2 2 2 2 2 2 2 2
left_child=1 4 9 -4 7 -2 12 8 -1 -3 16 26 -7 -14 -15 18 20 24 19 -11 -10 -17 23 27 -13 -16 -12 28 29 -22
right_child=5 2 3 -5 -6 6 -8 -9 10 15 11 17 13 14 25 21 -18 -19 -20 -21 22 -23 -24 -25 -26 -27 -28 -29 -30 -31
leaf_value=-0.086373911247183244 -0.099021398880739131 -0.086150389675291442 -0.084341183327160174 0.084222626622946439 0.063115585417440806 0.071836270728254423 0.084381730042359743 -0.084443236184725629 -0.086632793216828777 0.072749474845506312 0.060171011550902147 -0.093917615460402337 -0.09012957406635802 -0.098039189350062547 0.076292235736904995 -0.086053104313028844 0.030636542414574156 -0.089977637630476434 0.089835864553894945 0.0030827276516281494 -0.02708589510390487 0.067596195247272617 -0.080036471938779552 0.076993349514486706 0.085563037725997063 -0.084715156936463948 -0.097065220846766637 -0.086952353664987644 -0.091579387743269333 0.08773043333788863
leaf_weight=11.700033023953436 0.66915897745638986 1.1621990026906157 6.7778075551614183 1.5008893013000486 1.7488144068047393 8.3303653057664651 44.521609291434288 34.881199401803315 4.1930900570005276 1.4476085379719759 2.6636625342071052 0.24003906641155515 2.4319716272875658 0.66235937736928274 7.402275649830699 0.2487714821472754 1.0711571797728527 1.5631134426221249 1.0750232338905323 12.260626975446938 5.9097094591706956 6.859841619618237 2.9198594912886611 0.51831907685846168 0.474393748678267 0.18793105334043492 0.20202417671680439 1.5590680828317998 0.97030886728316534 0.52512279804795969
leaf_count=960 11 102 473 1 9 47 37 2530 379 4 25 10 132 12 28 18 5 103 2 248 288 58 250 6 3 14 5 123 63 4
internal_value=-6.5039e-10 -0.0444378 0.00436006 -0.0537813 -0.0659302 0.070923 0.0727128 -0.0691825 -0.0537575 0.0252386 -0.0370274 0.0035128 0.0453911 0.0247728 0.0586337 0.031152 -0.0488297 -0.0538292 0.0162132 0.0104396 -0.0539588 0.0622191 -0.0429122 -0.0314809 0.0252601 0.0723057 0.0490862 -0.037753 -0.0273946 -0.0177162
internal_weight=166.678 102.473 31.3328 8.2787 71.1399 64.2057 63.5365 69.3911 34.5099 23.0541 22.8099 5.14323 19.0149 10.6845 8.25257 21.8919 17.6666 2.27755 14.7833 13.7082 16.5955 7.10861 12.4024 9.48253 0.714433 7.59021 2.86569 8.96421 7.40514 6.43483
internal_count=5950 5669 906 474 4763 281 270 4754 2224 432 1264 146 233 186 54 330 1118 116 254 252 1113 76 734 484 13 42 30 478 355 292
is_linear=0
shrinkage=0.05


Tree=3
num_leaves=31
num_cat=0
split_feature=0 8 7 1 1 0 1 7 1 2 2 6 6 7 1 6 1 8 4 1 1 1 2 1 8 1 1 8 1 1
split_gain=179.024 38.358 14.0324 12.0751 11.5982 7.92477 5.37975 4.92236 6.05348 5.193 3.89898 3.46529 3.31879 2.62278 8.87616 2.58333 2.95036 2.42783 2.17427 2.04906 1.9027 1.98971 1.75613 1.53809 1.51515 1.39134 1.3675 1.5254 1.56518 1.99123
threshold=1.5000000000000002 7.5000000000000009 1.5000000000000002 0.85409998893737804 0.79975000023841869 3.5000000000000004 0.72914999723434459 1.5000000000000002 0.73395001888275158 1.2266414165496828 1.4821125268936159 0.85126817226409923 0.37595915794372564 1.5000000000000002 0.80895000696182262 0.42759820818901068 0.78435000777244579 5.5000000000000009 1.0000000180025095e-35 0.7349500060081483 0.77574998140335094 0.7511500120162965 0.66295841336250316 0.72935000061988842 6.5000000000000009 0.83994999527931224 0.73155000805854808 9.5000000000000018 0.73215001821517955 0.75094997882843029
decision_type=2 2 2 2 2 2 2 2 2 2 2 2 2 2 2 2 2 2 2 2 2 2 2 2 2 2 2 2 2 2
left_child=1 4 6 -4 7 12 -3 8 -1 17 -11 15 13 -2 -15 16 23 -10 -16 -12 21 22 -19 -8 -20 -26 -25 28 -28 -30
right_child=5 2 3 -5 -6 -7 11 -9 9 10 19 -13 -14 14 18 -17 -18 20 24 -21 -22 -23 -24 26 25 -27 27 -29 29 -31
leaf_value=-0.081762649957245526 0.060829223140665183 -0.081755101733899049 -0.079076193073306364 0.07889849919091263 0.029253773628500901 0.078264660129972075 0.063863101231313432 -0.079044331567626996 -0.082067748866560819 0.041475763500170279 0.030563711808165268 -0.087431103887114003 -0.08546566877437918 -0.082326735230105919 -0.089597720574282114 0.058216454439841483 0.073347707986138586 -0.022770187330681115 0.068601727742169535 -0.082856964229870544 0.03960707468471978 -0.081561476907404354 -0.080845736910650667 -0.089983055959265978 -0.083821781500496947 0.048994507894205452 0.079941265417651064 0.065483639336472166 -0.024788341097768282 0.023602174014083297
leaf_weight=11.286346320994197 8.1404464878141827 1.1176663292571927 6.7468924345448631 1.4738954305648801 3.3862276189029208 45.346538923680782 1.2567989677190841 33.772095553576946 4.3823332665488186 3.1794496010988942 0.56750886142253865 0.6039950754493465 0.53322124667465765 1.6512321457266814 0.26576346717774857 7.2821803251281372 2.3060954809188834 7.6537396833300537 4.4028730168938637 1.3348309164866803 0.72774664405733425 2.6841250965371737 1.568443947471678 0.36314567551016708 0.33497784286737431 0.47934988886117935 0.60497470200061521 1.0620995508506901 4.7785912593826634 3.8295815009623766
leaf_count=960 46 102 473 1 61 46 4 2480 380 30 13 36 29 111 12 62 5 361 10 103 12 240 123 21 21 6 3 11 124 64
internal_value=5.78354e-10 -0.0405647 0.00538116 -0.0507531 -0.061033 0.0676376 0.0252676 -0.0655855 -0.0519705 -0.0367546 0.00759875 0.0306832 0.0371527 0.0414331 0.0193013 0.0340039 0.0215881 -0.0500003 0.0499073 -0.0490211 -0.0388772 -0.0436744 -0.0326473 0.0115536 0.0570137 -0.00564015 0.00537381 0.0087439 0.00220289 -0.00326049
internal_weight=163.123 101.969 31.4259 8.22079 70.5428 61.1544 23.2051 67.1566 33.3845 22.0982 5.08179 22.0875 15.8079 15.2746 7.1342 21.4835 14.2013 17.0164 5.48296 1.90234 12.6341 11.9063 9.22218 11.8952 5.2172 0.814328 10.6384 10.2752 9.21315 8.60817
internal_count=5950 5669 906 474 4763 281 432 4702 2222 1262 146 330 235 206 160 294 232 1116 49 116 736 724 484 227 37 27 223 202 191 188
is_linear=0
shrinkage=0.05


Tree=4
num_leaves=31
num_cat=0
split_feature=0 8 7 1 1 0 1 7 1 2 2 2 2 1 1 1 1 1 1 1 1 1 8 8 1 7 1 1 1 1
split_gain=161.394 37.6125 12.9049 10.6628 6.34348 6.27824 5.03002 3.71341 4.91151 4.51942 3.17195 2.70527 2.49587 2.64558 2.407 6.92642 2.69332 2.12323 2.32446 3.31647 2.75408 3.39445 1.99862 1.89896 1.71048 1.70006 2.8482 1.65947 1.65038 1.60088
threshold=1.5000000000000002 7.5000000000000009 1.5000000000000002 0.85409998893737804 0.79975000023841869 3.5000000000000004 0.72914999723434459 1.5000000000000002 0.73395001888275158 1.2266414165496828 1.4821125268936159 2.0424714088439946 1.2550271153450014 0.78435000777244579 0.81325000524520885 0.76884999871253978 0.80895000696182262 0.7616499960422517 0.76104998588562023 0.75124999880790722 0.75094997882843029 0.74064999818801891 5.5000000000000009 5.5000000000000009 0.7349500060081483 1.5000000000000002 0.82925000786781322 0.78575000166893016 0.77134999632835399 0.76684999465942394
decision_type=2 2 2 2 2 2 2 2 2 2 2 2 2 2 2 2 2 2 2 2 2 2 2 2 2 2 2 2 2 2
left_child=1 4 6 -4 7 14 -3 8 -1 23 -11 12 13 17 15 -2 -17 18 19 20 21 -8 -18 -10 -12 -6 -27 -25 -7 -19
right_child=5 2 3 -5 25 28 11 -9 9 10 24 -13 -14 -15 -16 16 22 29 -20 -21 -22 -23 -24 27 -26 26 -28 -29 -30 -31
leaf_value=-0.078159522039833729 0.055696750672573139 -0.078166765630285767 -0.074914346101828649 0.074754743773904592 0.07135180527990434 -0.093859995777681976 0.020428518336572572 -0.07488190490064818 -0.078012587590454138 0.039140940896546426 0.024899865940473991 -0.083071446402042295 0.058908368048649823 0.071230090710479296 0.061133705523587517 -0.057299031497923016 0.07264002262421114 -0.099078188712935333 0.08393498550616639 -0.084172991822591081 0.081629185492189824 -0.082136627884615135 -0.083289005923223441 -0.042902392471057336 -0.078325627878068779 -0.082358865425504871 0.039665903250431317 0.055510649790050395 0.074360008273979816 0.014289410262316641
leaf_weight=11.036790798418222 5.9407800873741525 1.116128329187634 6.6301479171961564 1.4503064155578611 0.87350270152091902 0.14628294855356117 6.7328656427562255 33.191645799204707 4.2786349635571304 2.8618003865703932 0.59224850125610817 0.51083683874457975 6.6087972726672879 2.3016398251056662 6.4919062005355945 2.7223962126299743 0.8477986045181749 0.69972142204642185 1.2550984919071204 0.82666423916816789 1.5298364162445066 0.91650725714862336 0.27125243004411459 11.913585904985663 1.2448045639321206 0.8360374365001918 1.1172746028751133 0.4443320035934456 44.477535329759121 0.56112252362072468
leaf_count=960 45 102 473 1 2 4 104 2480 380 30 13 33 43 5 35 138 2 9 4 53 2 69 15 734 103 50 9 2 42 8
internal_value=1.90702e-10 -0.039228 0.00632316 -0.0480512 -0.0599684 0.0641134 0.0253771 -0.0631303 -0.0510813 -0.0370737 0.00622713 0.0306439 0.0333543 0.0219614 0.0375293 0.0218645 -0.030457 0.0129053 0.0197946 0.0117491 0.0203877 0.00813971 0.0348436 -0.0493037 -0.0450467 0.0133679 -0.0125619 -0.0393639 0.0738086 -0.0486254
internal_weight=160.428 99.5303 31.1397 8.08045 68.3907 60.898 23.0592 65.5638 32.3722 21.3354 4.69885 21.9431 21.4323 14.8235 16.2741 9.78223 3.84145 12.5218 11.261 10.0059 9.17921 7.64937 1.11905 16.6366 1.83705 2.82681 1.95331 12.3579 44.6238 1.26084
internal_count=5950 5669 906 474 4763 281 432 4702 2222 1262 146 330 297 254 235 200 155 249 232 228 175 173 17 1116 116 61 59 736 46 17
is_linear=0
shrinkage=0.05


Tree=5
num_leaves=31
num_cat=0
split_feature=0 8 7 1 1 0 1 7 1 2 2 6 1 6 1 2 1 2 1 1 1 1 8 7 1 4 1 1 1 6
split_gain=146.401 33.512 11.6754 9.52743 5.46384 5.04949 4.60868 3.52074 4.72507 3.95905 2.62993 2.47422 2.19448 2.17261 2.02023 1.82915 1.47586 1.35073 1.90108 2.60046 1.90016 2.8287 1.55285 1.32821 6.89299 1.76619 1.55889 1.30919 2.54889 1.30421
threshold=1.5000000000000002 7.5000000000000009 1.5000000000000002 0.85409998893737804 0.79975000023841869 3.5000000000000004 0.72914999723434459 1.5000000000000002 0.73395001888275158 1.2266414165496828 1.4821125268936159 0.85126817226409923 0.78575000166893016 0.37595915794372564 0.73414999246597301 2.2266414165496831 0.7349500060081483 1.2550271153450014 0.76104998588562023 0.75124999880790722 0.75094997882843029 0.74064999818801891 8.5000000000000018 1.5000000000000002 0.80895000696182262 1.0000000180025095e-35 0.84415000677108776 0.80105000734329235 0.82925000786781322 0.53177833557128917
decision_type=2 2 2 2 2 2 2 2 2 2 2 2 2 2 2 2 2 2 2 2 2 2 2 2 2 2 2 2 2 2
left_child=1 4 6 -4 7 13 -3 8 -1 12 -11 15 14 23 -10 17 29 18 19 20 21 -8 -20 -2 -25 -26 -27 -6 -29 -12
right_child=5 2 3 -5 27 -7 11 -9 9 10 16 -13 -14 -15 -16 -17 -18 -19 22 -21 -22 -23 -24 24 25 26 -28 28 -30 -31
leaf_value=-0.075080138313525391 0.05426977692762483 -0.075076744507117155 -0.071507411016631314 0.071300259266998053 0.065281742857582439 0.070397921864321589 0.021420326213630825 -0.071476649687355231 0.046736836218701866 0.034090346719683369 -0.084964932629268838 -0.079298743529054541 0.053231389440984017 -0.077004373136027565 -0.05269462561340596 -0.078469333347119127 -0.074655401189897663 0.053108597969587529 0.059914488259306869 -0.080134386613610303 0.077368922927393002 -0.079073904171100481 -0.095050338886355973 -0.074445705722719455 -0.083052279814233784 0.058944724736572064 -0.088877378968818227 -0.080270290508508077 0.037672732433154395 0.070279049215188238
leaf_weight=10.905556647107003 8.3627263363450748 1.1014869976788819 6.5179600147530428 1.4228770732879636 0.81894385628402178 43.797927610576153 6.9014197904616665 32.814237194135785 0.52802730258555186 2.9934179466217747 0.19934572745114554 0.50719080492854018 0.53746497631072898 0.40259569138288576 15.703426335938273 0.36498638708144326 1.1953862458467481 6.5793567132204762 4.0246901679784051 0.69047607481479722 1.2645238637924192 0.77930640429258335 0.16842584684491146 1.4059531791135675 0.2443837597966193 5.5530092641711235 0.18426991067826737 0.77279092278331507 1.1248710434883831 0.42101091891527176
leaf_count=960 46 102 473 1 7 46 94 2480 9 30 10 36 3 29 1104 26 103 42 20 47 2 59 4 111 12 30 7 45 9 3
internal_value=-3.80677e-10 -0.0375454 0.00616943 -0.0459185 -0.0570346 0.0615855 0.0246496 -0.0599251 -0.0482561 -0.0346992 0.00529312 0.0298115 -0.0461686 0.037691 -0.04946 0.0324755 -0.0421817 0.0344597 0.0255871 0.0133578 0.0205744 0.0112239 0.05369 0.0406228 0.0251745 0.0485896 0.054197 0.0124445 -0.0103576 0.0203929
internal_weight=158.288 98.3372 30.3227 7.94084 68.0145 59.9509 22.3819 65.2979 32.4836 21.5781 4.80916 21.2804 16.7689 16.1529 16.2315 20.7732 1.81574 20.4082 13.8288 9.63573 8.94525 7.68073 4.19312 15.7503 7.38762 5.98166 5.73728 2.71661 1.89766 0.620357
internal_count=5950 5669 906 474 4763 281 432 4702 2222 1262 146 330 1116 235 1113 294 116 268 226 202 155 153 24 206 160 49 37 61 54 13
is_linear=0
shrinkage=0.05


Tree=6
num_leaves=31
num_cat=0
split_feature=0 8 7 1 1 0 1 2 2 6 6 1 1 7 1 8 1 4 8 1 1 7 1 1 1 1 2 2 8 1
split_gain=131.344 30.417 10.5119 8.62903 6.17451 4.76097 4.16739 3.17044 4.25911 2.03069 2.00575 1.60152 2.16343 1.50061 2.11124 1.3649 1.4251 3.83803 1.26789 3.8408 3.40309 2.72411 1.98375 1.89013 1.19386 1.16083 1.44641 1.41129 1.11898 1.02599
threshold=1.5000000000000002 7.5000000000000009 1.5000000000000002 0.85409998893737804 0.79975000023841869 3.5000000000000004 0.72914999723434459 1.2266414165496828 1.4821125268936159 0.85126817226409923 0.37595915794372564 0.75185000896453869 0.74024999141693126 1.5000000000000002 0.82925000786781322 5.5000000000000009 0.86010000109672557 1.5000000000000002 6.5000000000000009 0.75865000486373912 0.76854997873306286 1.5000000000000002 0.76265001296997081 0.83994999527931224 0.83254998922348034 0.79069998860359203 2.2266414165496831 1.2550271153450014 4.5000000000000009 0.7349500060081483
decision_type=2 2 2 2 2 2 2 2 2 2 2 2 2 2 2 2 2 2 2 2 2 2 2 2 2 2 2 2 2 2
left_child=1 4 6 -4 7 10 -3 -1 11 25 18 12 29 -6 -15 16 -7 -18 22 -20 -21 -22 -2 -23 -16 26 27 -8 -24 -9
right_child=5 2 3 -5 13 15 9 8 -10 -11 -12 -13 -14 14 24 -17 17 -19 19 20 21 23 28 -25 -26 -27 -28 -29 -30 -31
leaf_value=-0.062650341436981061 -0.092981956137732524 -0.07249706431809616 -0.068707695812083303 0.068525424419571768 0.070560727603479187 0.068429599301869426 0.019181825043739199 0.00010484013387709643 -0.060250904447405988 -0.075508024624416747 -0.072238921124490998 -0.07273490998207216 0.049183310688358309 -0.074386687012837668 0.056418142558380305 0.069691561317684877 -0.099999999999999839 0.068629835182200935 0.072131958322190118 -0.096171210885604264 0.061306323965970723 -0.072223001238449658 -0.085503254753177202 0.04507264684371904 -0.086408462667795949 0.074014986923489276 -0.074575263239596748 0.047851169068425126 0.05600796401995254 -0.095080123935213715
leaf_weight=54.256704987026751 0.23620831035077472 1.0791545184329212 6.398636655882 1.3952447175979612 0.91560357436537665 1.4496417045593253 12.32814226113261 0.81862163729965531 5.4212566632777452 0.46140639949589868 0.42124822176992971 0.53829651046544302 2.2522731889039278 0.72384690493345272 0.96707424148917176 40.264099337160587 0.5836712121963501 0.79979854822158813 2.3248710753396162 0.86984384432435069 1.5968846753239634 1.0043223379179833 0.14191642496734758 0.52194456383585919 0.17239170335233212 1.4298903942108143 0.34207848273217578 6.585739826783537 8.9241727348417026 0.43277196958661079
leaf_count=4179 5 102 473 1 2 1 224 38 415 36 29 37 26 50 3 43 1 1 10 13 9 79 6 6 6 2 26 42 78 7
internal_value=9.24396e-11 -0.0359516 0.00582383 -0.0441405 -0.0548108 0.058676 0.0233443 -0.0579925 -0.0312871 0.0282351 0.0354227 0.00756046 0.0198969 0.0181457 -0.00761018 0.0673313 0.0337866 -0.0025133 0.0383261 0.0210408 -0.00870639 0.0156539 0.0500658 -0.0321109 0.0348097 0.0305491 0.0273215 0.0291644 0.0537928 -0.0328132
internal_weight=155.658 96.5191 30.0203 7.79388 66.4988 59.1386 22.2264 63.7199 9.46322 21.1473 16.0414 4.04196 3.50367 2.77892 1.86331 43.0972 2.83311 1.38347 15.6202 6.31787 3.993 3.12315 9.3023 1.52627 1.13947 20.6859 19.256 18.9139 9.06609 1.25139
internal_count=5950 5669 906 474 4763 281 432 4702 523 330 235 108 71 61 59 46 3 2 206 117 107 94 89 85 9 294 292 266 84 45
is_linear=0
shrinkage=0.05


Tree=7
num_leaves=31
num_cat=0
split_feature=0 8 7 1 1 0 1 2 2 7 1 1 1 6 4 1 1 7 1 1 1 1 1 2 8 7 1 1 1 1
split_gain=125.924 26.1527 8.86934 7.88892 5.54398 4.0312 3.87784 3.107 4.62924 2.05009 7.02479 1.74232 1.75223 1.73367 1.48805 1.36271 5.24569 1.35674 1.93882 1.33512 1.28602 4.57639 1.22777 1.16994 1.14211 1.00228 2.33869 1.2371 1.33797 1.00101
threshold=1.5000000000000002 7.5000000000000009 1.5000000000000002 0.85409998893737804 0.79975000023841869 3.5000000000000004 0.72914999723434459 1.2266414165496828 1.4821125268936159 1.5000000000000002 0.80895000696182262 0.75185000896453869 0.73395001888275158 0.85126817226409923 1.0000000180025095e-35 0.75094997882843029 0.73925000429153453 1.5000000000000002 0.82925000786781322 0.77134999632835399 0.75124999880790722 0.76104998588562023 0.84415000677108776 1.3262932896614077 7.5000000000000009 1.5000000000000002 0.77574998140335094 0.73395001888275158 0.73414999246597301 0.72935000061988842
decision_type=2 2 2 2 2 2 2 2 2 2 2 2 2 2 2 2 2 2 2 2 2 2 2 2 2 2 2 2 2 2
left_child=1 4 6 -4 7 9 -3 25 11 -2 -11 12 -9 15 -12 16 23 -6 -19 -7 -17 -22 24 29 -16 26 27 -1 -29 -8
right_child=5 2 3 -5 17 19 13 8 -10 10 14 -13 -14 -15 22 20 -18 18 -20 -21 21 -23 -24 -25 -26 -27 -28 28 -30 -31
leaf_value=-0.071188700757293874 0.054720987335694041 -0.070756239861934286 -0.066331115926175785 0.066218838193277618 0.068743544019337285 -0.088012659439487384 0.058926120405741869 -0.070070778182230772 -0.05929753368428331 -0.068920533206287743 -0.077618701882279817 -0.069436819940953548 0.040205494654835437 -0.072439607118217175 0.05783015242539466 0.072419544374593817 -0.061817411108848253 -0.071242463373185308 0.034358227745005493 0.067109813796051673 -0.076636878418676446 0.05044171497770239 -0.082511940617294749 0.047966850291163626 -0.069134127149850483 -0.066426202410437285 0.025274321624854296 0.041315376788643186 -0.049796633689507333 0.0069760510336605106
leaf_weight=8.4262890936806851 7.9416656475514156 1.1313543161377371 6.3205687711015335 1.3649456501007078 0.87399389222264212 0.13917370885610481 1.1135272532701543 0.41121066175401111 5.2312483871355653 1.7700219573453067 0.23947672080248583 0.55162282567471255 2.9049876863136888 0.45382464211434026 5.3783285757526755 2.5283937454223624 1.832600526511668 0.71472707483917486 1.1092079933732746 41.718773659318686 0.85516813118010748 4.1297982167452574 0.1706388797610997 4.8424103474244475 0.18315848521888245 29.501167554408312 0.92402586620300908 0.41415205597877403 14.87756209541112 5.5435491465032101
leaf_count=780 51 102 473 1 2 4 4 36 415 133 12 37 35 36 18 4 92 50 9 42 55 24 7 34 14 2283 21 9 1086 81
internal_value=5.16298e-10 -0.0350396 0.00356512 -0.0427903 -0.0526711 0.0584933 0.0194481 -0.0556655 -0.0286315 0.0368726 0.0185631 0.0128444 0.0265312 0.0242395 0.0444938 0.0263443 0.0167473 0.0175219 -0.00702245 0.066594 0.0433736 0.0286415 0.0495954 0.0292677 0.0536488 -0.0602088 -0.0527653 -0.0558056 -0.047329 0.0156657
internal_weight=153.598 96.0563 30.1161 7.68551 65.9402 57.5412 22.4306 63.2423 9.09907 15.6833 7.74162 3.86782 3.3162 21.2993 5.9716 20.8454 13.3321 2.69793 1.82394 41.8579 7.51336 4.98497 5.73213 11.4995 5.56149 54.1432 24.642 23.718 15.2917 6.65708
internal_count=5950 5669 906 474 4763 281 432 4702 523 235 184 108 71 330 51 294 211 61 59 46 83 79 39 119 32 4179 1896 1875 1095 85
is_linear=0
shrinkage=0.05


Tree=8
num_leaves=31
num_cat=0
split_feature=0 8 7 1 1 0 1 7 1 2 2 1 6 6 7 1 1 4 8 1 1 7 1 1 6 1 2 8 1 1
split_gain=115.262 23.2213 8.04466 7.24886 5.03129 4.01621 3.524 3.03841 4.32319 3.79389 2.31515 1.83115 1.81325 1.55222 1.45442 5.62164 1.27563 1.2347 1.23303 1.45248 1.57871 1.15782 1.72638 1.13884 1.26661 2.43766 2.10403 1.38197 1.50391 1.82106
threshold=1.5000000000000002 7.5000000000000009 1.5000000000000002 0.85409998893737804 0.79975000023841869 3.5000000000000004 0.72914999723434459 1.5000000000000002 0.73395001888275158 1.2266414165496828 1.4821125268936159 0.77574998140335094 0.37595915794372564 0.85126817226409923 1.5000000000000002 0.80895000696182262 0.7349500060081483 1.0000000180025095e-35 5.5000000000000009 0.7511500120162965 0.75094997882843029 1.5000000000000002 0.82925000786781322 0.79069998860359203 0.51788753271102916 0.72935000061988842 1.4821125268936159 9.5000000000000018 0.75094997882843029 0.73634999990463268
decision_type=2 2 2 2 2 2 2 2 2 2 2 2 2 2 2 2 2 2 2 2 2 2 2 2 2 2 2 2 2 2
left_child=1 4 6 -4 7 12 -3 8 -1 11 -11 18 14 23 -2 -16 -12 -17 -10 20 -20 -6 -23 24 25 -8 27 28 29 -27
right_child=5 2 3 -5 21 -7 13 -9 9 10 16 -13 -14 -15 15 17 -18 -19 19 -21 -22 22 -24 -25 -26 26 -28 -29 -30 -31
leaf_value=-0.068946726643773881 0.05247569745669866 -0.068999488122162986 -0.064325242351798359 0.064199293991436798 0.064978291994802415 0.064646451758094081 0.06078409836893206 -0.064401334627886081 -0.068728379826354644 0.037633282206670053 0.026359838308129047 0.026451906534378396 -0.067991339836861994 -0.069892653430217971 -0.066931580882516648 -0.073855002241846032 -0.067363596925888003 0.047886203819215538 -0.03143261411997722 -0.068731770294410396 0.064490219152505385 -0.068533468253921898 0.032409095407431303 0.069799992253142248 0.041982585528954952 0.0040777452511814678 -0.083424886396314929 0.054935279818464015 0.025608448201589112 -0.060630160605274867
leaf_weight=10.216153574176134 7.9326623696833813 1.0939975287765324 6.1841033641248933 1.3336757421493528 0.85092865675687712 40.95137494802475 2.2720395624637701 31.288858599029481 3.9755612714216157 2.9303485658019772 0.5412849374115466 0.95878621377050954 0.41717862617224533 0.43940804060548444 1.4405543166212735 0.21629393007606257 1.1025587636977432 5.6142932791262865 8.1723891738802159 2.6483007213100782 0.45270190946757871 0.68152653519064199 1.1190910525619981 1.3310691714286793 5.5704382304102174 3.5647671893238968 0.64889988582581359 1.4350228961557157 3.8760449886322021 1.5644950363785026
leaf_count=960 46 102 473 1 2 46 6 2480 371 30 13 21 29 36 111 12 103 37 478 240 6 50 9 2 50 50 28 13 63 82
internal_value=4.48604e-10 -0.0338636 0.0030751 -0.0415246 -0.0505381 0.0564184 0.0184581 -0.0534096 -0.0423147 -0.0292227 0.0109909 -0.0405719 0.0348481 0.0230798 0.0376699 0.0215171 -0.0365023 0.04337 -0.0447861 -0.0363428 -0.0263979 0.0169159 -0.00579726 0.0250959 0.0219528 0.0136022 0.00393527 0.00936498 0.00210322 -0.015659
internal_weight=150.825 94.2525 29.314 7.51778 64.9385 56.5724 21.7962 62.2869 30.9981 20.7819 4.57419 16.2077 15.621 20.7022 15.2038 7.27114 1.64384 5.83059 15.249 11.2734 8.62509 2.65155 1.80062 20.2628 18.9317 13.3613 11.0892 10.4403 9.00531 5.12926
internal_count=5950 5669 906 474 4763 281 432 4702 2222 1262 146 1116 235 330 206 160 116 49 1095 724 484 61 59 294 292 242 236 208 195 132
is_linear=0
shrinkage=0.05


Tree=9
num_leaves=31
num_cat=0
split_feature=0 8 7 1 1 0 1 7 1 8 2 1 6 6 6 2 1 1 2 1 1 1 1 7 1 4 7 1 1 8
split_gain=105.896 21.5607 7.44149 6.67363 4.62583 3.97337 3.23675 2.83983 3.98432 3.37802 2.72501 1.67693 1.59478 1.5307 1.55744 1.42015 1.33933 1.42391 1.31779 1.85526 1.9538 1.73561 2.03955 1.2851 5.04479 1.02985 1.00725 1.53518 0.998027 0.969089
threshold=1.5000000000000002 7.5000000000000009 1.5000000000000002 0.85409998893737804 0.79975000023841869 3.5000000000000004 0.72914999723434459 1.5000000000000002 0.73395001888275158 5.5000000000000009 1.2266414165496828 0.77574998140335094 0.37595915794372564 0.51788753271102916 0.879502832889557 2.0424714088439946 0.7511500120162965 0.75094997882843029 1.2550271153450014 0.76104998588562023 0.75124999880790722 0.75094997882843029 0.74064999818801891 1.5000000000000002 0.80895000696182262 1.0000000180025095e-35 1.5000000000000002 0.82925000786781322 0.84415000677108776 8.5000000000000018
decision_type=2 2 2 2 2 2 2 2 2 2 2 2 2 2 2 2 2 2 2 2 2 2 2 2 2 2 2 2 2 2
left_child=1 4 6 -4 7 12 -3 8 -1 -10 11 16 23 -12 -15 18 17 -11 19 20 21 22 -8 -2 -25 -26 -6 -28 -27 -21
right_child=5 2 3 -5 26 -7 15 -9 9 10 13 -13 -14 14 -16 -17 -18 -19 -20 29 -22 -23 -24 24 25 28 27 -29 -30 -31
leaf_value=-0.067194599086639453 0.049572308073254245 -0.067281656088940753 -0.062636251326963627 0.062482604689979952 0.061480226343202243 0.062889259304484371 0.010906259743875425 -0.062699740404493234 -0.067172744648344773 -0.030423830172202224 -0.068541836208591236 0.038458795328564062 -0.065622306773822844 0.039772400747176279 -0.067894375103113219 -0.06922863568357393 -0.066741962867888652 0.058651784123633803 0.043232666604743099 0.048466795247374003 -0.072359534250054272 0.068860024735059186 -0.070950056959929647 -0.064870678615436314 -0.070768428964902722 0.048598478337793932 -0.066284089681440728 0.030192507818480527 -0.07751255707113662 -0.082191995957618405
leaf_weight=9.863735159859063 7.9135578796267474 1.0613552276045144 6.0269732996821395 1.294694662094116 0.83201405778527182 40.017602594569325 6.9492346914485132 30.494529409334064 4.4269108874723342 8.1151869362220133 0.45757188647985358 0.83633983321487981 0.39881758764386255 3.2225057622417812 0.37496452778577793 0.41543008573353191 2.5537081398069867 0.47490119561553079 6.2410558564588419 3.9451412670314303 0.77823351044207889 1.1063520908355711 0.85455001331865776 1.3981463150121269 0.19912525918334711 5.4225046318024397 0.65113921090960514 1.1243337411433456 0.16155725903809059 0.14720974024385203
leaf_count=960 46 102 473 1 2 46 104 2480 421 478 38 12 29 34 33 33 240 6 43 20 53 2 69 111 12 30 50 9 7 6
internal_value=7.99216e-10 -0.0328355 0.00302484 -0.0405114 -0.0491297 0.0545657 0.0178518 -0.0519255 -0.0410913 -0.0285082 -0.0178339 -0.0298257 0.0330672 0.0175944 0.0285503 0.022273 -0.0349505 -0.0254993 0.0241715 0.0155391 0.00361574 0.0102516 0.00194262 0.0356747 0.02036 0.0409655 0.016084 -0.00518944 0.0449499 0.0437667
internal_weight=147.759 92.2481 28.8202 7.32167 63.4278 55.5113 21.4986 60.8204 30.3258 20.4621 16.0352 11.9801 15.4937 4.05504 3.59747 20.4372 11.1438 8.59009 20.0218 13.7807 9.68837 8.91014 7.80378 15.0949 7.18133 5.78319 2.60749 1.77547 5.58406 4.09235
internal_count=5950 5669 906 474 4763 281 432 4702 2222 1262 841 736 235 105 67 330 724 484 297 254 228 175 173 206 160 49 61 59 37 26
is_linear=0
shrinkage=0.05


Tree=10
num_leaves=31
num_cat=0
split_feature=0 8 7 1 1 0 1 7 1 8 2 1 6 6 6 6 7 1 1 6 1 4 7 0 1 2 1 1 1 1
split_gain=97.7964 20.0503 6.81191 6.17376 4.28228 3.87824 2.91692 2.63037 3.6452 2.99679 2.53935 1.43691 1.41426 1.32485 1.31767 1.31038 1.11996 4.62269 1.04794 1.17586 1.01743 0.88847 0.870631 1.39324 0.862541 0.859795 0.903434 0.946037 0.868322 2.08459
threshold=1.5000000000000002 7.5000000000000009 1.5000000000000002 0.85409998893737804 0.79975000023841869 3.5000000000000004 0.72914999723434459 1.5000000000000002 0.73395001888275158 5.5000000000000009 1.2266414165496828 0.78575000166893016 0.37595915794372564 0.51788753271102916 0.879502832889557 0.85126817226409923 1.5000000000000002 0.80895000696182262 0.79069998860359203 0.42759820818901068 0.75554999709129345 1.0000000180025095e-35 1.5000000000000002 1.0000000180025095e-35 0.84415000677108776 0.66295841336250316 0.7511500120162965 0.75094997882843029 0.74764999747276317 0.74744999408721935
decision_type=2 2 2 2 2 2 2 2 2 2 2 2 2 2 2 2 2 2 2 2 2 2 2 2 2 2 2 2 2 2
left_child=1 4 6 -4 7 12 -3 8 -1 -10 11 25 16 -12 -15 18 20 -18 19 -8 -2 -19 -6 -24 -23 26 27 28 29 -11
right_child=5 2 3 -5 22 -7 15 -9 9 10 13 -13 -14 14 -16 -17 17 21 -20 -21 -22 24 23 -25 -26 -27 -28 -29 -30 -31
leaf_value=-0.065680762938435985 -0.084395844267629652 -0.065775343243149251 -0.061182792376477294 0.061011399802768387 0.057907527318616037 0.0613421357407678 0.010020149190149206 -0.061236316810377306 -0.065425191975089933 -0.025825516799965614 -0.066482012154262207 0.056296282054474456 -0.063618738299425479 0.036252283659369888 -0.065801699886840689 -0.066381864344055005 -0.063123748554135509 -0.068175262478905194 0.066466753919549468 0.035911204069060995 0.049469174930975274 0.046394093029669216 -0.068870928386690289 0.026324941137278027 -0.073911491648004174 -0.064862853180008909 -0.054400110108770598 0.051580924507090314 -0.071229361841704628 0.078211384337040668
leaf_weight=9.4667713120579737 0.14459073171019188 1.0175273912027538 5.8616296499967566 1.2550027370452879 0.81561365351080817 39.028052557259798 11.606217836961159 29.657954939175397 4.2177526336163309 5.3074206486344284 0.43116592429578204 0.46598924323916513 0.37984505016356784 3.2372033642604952 0.3505399515852331 0.42046178970485826 1.3625472621060906 0.1856278609484433 1.2860743105411518 7.0484435167163602 7.747418187558651 5.3484127121046185 0.56958566140383471 1.1818753369152546 0.15325606055557717 1.8106791665777571 2.3114312468096614 0.45200697891414154 0.82360337302088726 0.5295258630067109
leaf_count=960 4 102 473 1 2 46 230 2480 421 288 38 2 29 34 33 36 111 12 2 62 42 30 39 20 7 173 200 6 63 4
internal_value=7.11026e-10 -0.0319458 0.0027371 -0.0396341 -0.0479821 0.0529735 0.0168418 -0.0507298 -0.0401326 -0.0280017 -0.0179605 -0.0297382 0.0316566 0.0163291 0.0262811 0.0209705 0.0340787 0.0195952 0.0228124 0.0198028 0.0470166 0.0394128 0.0152372 -0.00463333 0.0430428 -0.0333067 -0.0272437 -0.0184184 -0.0231688 -0.0163873
internal_weight=144.474 90.1245 28.4954 7.11663 61.6291 54.3498 21.3787 59.062 29.4041 19.9373 15.7196 11.7007 15.3217 4.01891 3.58774 20.3612 14.9419 7.04984 19.9407 18.6547 7.89201 5.6873 2.56707 1.75146 5.50167 11.2347 9.42399 7.11256 6.66055 5.83695
internal_count=5950 5669 906 474 4763 281 432 4702 2222 1262 841 736 235 105 67 330 206 160 294 292 46 49 61 59 37 734 561 361 355 292
is_linear=0
shrinkage=0.05


Tree=11
num_leaves=31
num_cat=0
split_feature=0 8 7 1 1 0 1 7 1 2 2 1 6 2 2 1 8 1 7 1 8 1 1 1 1 1 1 1 1 1
split_gain=90.5851 18.6838 6.18951 5.72733 4.03737 3.77373 2.61025 2.4311 3.32084 2.79435 1.51947 1.31331 1.2697 1.23608 1.05052 1.55504 1.0139 0.999983 0.999224 4.21771 0.858467 1.65576 1.58657 1.11014 1.47483 1.78027 2.24776 1.29309 2.85803 2.69953
threshold=1.5000000000000002 7.5000000000000009 1.5000000000000002 0.85409998893737804 0.79975000023841869 3.5000000000000004 0.72914999723434459 1.5000000000000002 0.73395001888275158 1.2266414165496828 1.4821125268936159 0.78575000166893016 0.37595915794372564 2.0424714088439946 1.2550271153450014 0.78435000777244579 5.5000000000000009 0.7349500060081483 1.5000000000000002 0.80895000696182262 9.5000000000000018 0.73514997959136974 0.72935000061988842 0.75094997882843029 0.75124999880790722 0.76104998588562023 0.7616499960422517 0.73634999990463268 0.73614999651908886 0.73355001211166393
decision_type=2 2 2 2 2 2 2 2 2 2 2 2 2 2 2 2 2 2 2 2 2 2 2 2 2 2 2 2 2 2
left_child=1 4 6 -4 7 12 -3 8 -1 11 -11 16 18 14 15 20 -10 -12 -2 -20 22 -22 -8 27 -25 -26 -27 28 29 -24
right_child=5 2 3 -5 -6 -7 13 -9 9 10 17 -13 -14 -15 -16 -17 -18 -19 19 -21 21 -23 23 24 25 26 -28 -29 -30 -31
leaf_value=-0.064305232831654208 0.044936547017518591 -0.064403242862607027 -0.059929694979827378 0.059741649683232458 0.014836937048134763 0.059986240369313798 0.06787536459740208 -0.05997443749411871 -0.063800894117335347 0.02864330770216942 0.0237476498826035 0.042216353345688906 -0.06194671504100361 -0.0666952253868036 0.038270599151358511 0.053809326031184095 -0.033072273253427729 -0.062709347222604031 -0.061616831793259386 0.037824070083171069 -0.08930121580946021 0.062007798968910156 0.0070316191206503814 0.066473624206101187 -0.069115154628866748 0.068717078682909757 -0.03607372098275078 -0.055628086958324989 0.085478097155270272 -0.092041213006436029
leaf_weight=9.063832559622826 7.8346349857747519 0.97457970073447242 5.6876753438264123 1.2130262851715086 2.527715863659977 37.987328249961138 0.8248010873794599 28.776948648504913 3.5685122590512046 2.8899365235120049 0.50544016994535901 0.49411474354565221 0.36296132206916887 0.40905351005494495 6.1710551697760812 2.0396623983979216 10.834969007410107 0.98862826637923717 1.317777805496007 5.5880323704332113 0.20930082537233907 1.3279284639284012 2.2383445175364605 1.0595251321792605 0.74322278425097499 1.1269004940986636 0.93742411211132992 1.6608940241858361 0.74094462394714344 0.99242484569549549
leaf_count=960 46 102 473 1 61 46 2 2480 379 30 13 3 29 33 43 5 734 103 111 49 6 9 38 2 53 4 17 94 2 22
internal_value=-6.53785e-10 -0.0311164 0.00229709 -0.0388935 -0.0470007 0.0515807 0.0155448 -0.0497371 -0.0393439 -0.0276101 0.00747812 -0.0379358 0.0304396 0.019349 0.0211025 0.0134813 -0.0406854 -0.0334611 0.0327145 0.0188486 0.00654675 0.0414064 0.00135644 -0.00441901 0.0162095 -0.00275936 0.0211309 -0.0185816 -0.00308941 -0.0234015
internal_weight=141.098 88.0069 28.3568 6.9007 59.6501 53.0907 21.4561 57.1224 28.3454 19.2816 4.384 14.8976 15.1034 20.4815 20.0724 13.9014 14.4035 1.49407 14.7404 6.90581 11.8617 1.53723 10.3245 9.49968 3.86707 2.80755 2.06432 5.63261 3.97171 3.23077
internal_count=5950 5669 906 474 4763 281 432 4702 2222 1262 146 1116 235 330 297 254 1113 116 206 160 249 15 234 232 76 74 21 156 62 60
is_linear=0
shrinkage=0.05


Tree=12
num_leaves=31
num_cat=0
split_feature=0 8 7 1 1 0 1 7 1 8 2 1 1 2 6 6 6 1 6 7 1 8 1 4 1 1 0 1 1 1
split_gain=83.667 17.1263 5.97654 5.31561 3.80246 3.79421 2.59768 2.58147 3.53489 2.73611 2.10469 1.36641 1.18397 1.14292 1.13531 1.1107 1.06629 1.01427 0.975559 0.926879 3.8013 0.882973 1.25821 0.851401 0.851089 1.08761 0.829564 2.85576 0.825188 1.48867
threshold=1.5000000000000002 7.5000000000000009 1.5000000000000002 0.85409998893737804 0.79975000023841869 3.5000000000000004 0.72914999723434459 1.5000000000000002 0.73395001888275158 5.5000000000000009 1.2266414165496828 0.77574998140335094 0.7511500120162965 2.0424714088439946 0.37595915794372564 0.51788753271102916 0.879502832889557 0.75094997882843029 0.85126817226409923 1.5000000000000002 0.80895000696182262 6.5000000000000009 0.83994999527931224 1.0000000180025095e-35 0.79069998860359203 0.78575000166893016 2.3500000238418584 0.76884999871253978 0.7349500060081483 0.74024999141693126
decision_type=2 2 2 2 2 2 2 2 2 2 2 2 2 2 2 2 2 2 2 2 2 2 2 2 2 2 2 2 2 2
left_child=1 4 6 -4 7 14 -3 8 -1 -10 11 12 17 18 19 -12 -17 28 24 26 -21 23 -23 -22 25 -8 27 -2 -11 -30
right_child=5 2 3 -5 -6 -7 13 -9 9 10 15 -13 -14 -15 -16 16 -18 -19 -20 20 21 22 -24 -25 -26 -27 -28 -29 29 -31
leaf_value=-0.063403206812363999 0.042828377723892253 -0.06351973340572116 -0.058855009120287127 0.058665781000174999 0.014358615377943154 0.058792920762278336 0.022079653802337611 -0.058891677627629313 -0.062915355802812781 0.015241869659326435 -0.063895689650697599 0.035408438057356301 -0.062899983047271887 -0.064922867368832127 -0.060530092366805122 0.032718792417612587 -0.063338079448214513 0.048571083010218945 -0.064028104796682681 -0.060346332088275036 -0.066311547337727691 -0.070041127711716278 0.041447202096021374 0.049234190616142988 0.063613663243268545 -0.09772303839154689 0.067070097280982469 -0.090076619202275443 -0.068421558521157486 -0.018244245020695479
leaf_weight=9.0289797051809746 4.8748200926929677 0.96902385819703951 5.4913573991507283 1.1666091680526731 2.5524802254512897 36.883380059152842 17.099639542400851 27.79159139143303 3.930952086113396 1.0096937883645223 0.39831491187214796 0.81901999004185277 2.3613221310079107 0.38480895617976685 0.34656753111630756 3.2388410298153762 0.3172015887685119 0.46901698410511095 0.3229826195165505 1.2724658395163713 0.16548927780240763 0.44205116480588891 0.59193901903927326 4.3532794043421745 1.2413520514965046 0.19156642630696197 2.4307610690593719 0.44072558730840672 2.0978371165692806 5.0041875476017594
leaf_count=960 35 102 473 1 61 46 264 2480 421 36 38 12 240 33 29 34 33 6 29 111 10 23 6 10 2 2 3 8 165 277
internal_value=-1.8043e-09 -0.0302696 0.00282245 -0.038263 -0.045334 0.0501869 0.016358 -0.0480323 -0.0375076 -0.0256067 -0.0162746 -0.0268846 -0.0315472 0.020381 0.0289095 0.0152817 0.0241504 -0.0229193 0.0221219 0.0310368 0.0176024 0.035465 -0.00621625 0.0450026 0.0236233 0.0207524 0.0428737 0.0318089 -0.0270529 -0.0330659
internal_weight=137.688 85.8868 26.8673 6.65797 59.0194 51.8015 20.2094 56.467 28.6754 19.6464 15.7154 11.7611 10.9421 19.2403 14.9181 3.95436 3.55604 8.58074 18.8555 14.5715 6.82522 5.55276 1.03399 4.51877 18.5326 17.2912 7.74631 5.31555 8.11172 7.10202
internal_count=5950 5669 906 474 4763 281 432 4702 2222 1262 841 736 724 330 235 105 67 484 297 206 160 49 29 20 268 266 46 43 478 442
is_linear=0
shrinkage=0.05


Tree=13
num_leaves=31
num_cat=0
split_feature=0 8 7 1 1 0 7 1 8 1 2 1 1 1 1 8 1 1 1 1 1 1 8 1 7 1 1 6 1 1
split_gain=78.3175 16.0526 5.4881 4.96374 3.76814 3.43775 2.40325 3.23896 2.45864 2.37893 1.84397 1.22214 1.16202 1.14113 2.21258 2.03386 1.63311 2.27715 2.89602 2.93441 2.54196 2.25946 1.57047 1.53678 1.10946 3.99972 1.06021 0.988293 0.948677 3.60078
threshold=1.5000000000000002 7.5000000000000009 1.5000000000000002 0.85409998893737804 0.79975000023841869 3.5000000000000004 1.5000000000000002 0.73395001888275158 5.5000000000000009 0.72914999723434459 1.2266414165496828 0.77574998140335094 0.78435000777244579 0.72935000061988842 0.73155000805854808 9.5000000000000018 0.73215001821517955 0.75094997882843029 0.73634999990463268 0.73334997892379772 0.75124999880790722 0.76104998588562023 9.5000000000000018 0.7616499960422517 1.5000000000000002 0.80895000696182262 0.7511500120162965 0.51788753271102916 0.73614999651908886 0.73355001211166393
decision_type=2 2 2 2 2 2 2 2 2 2 2 2 2 2 2 2 2 2 2 2 2 2 2 2 2 2 2 2 2 2
left_child=1 4 9 -4 6 24 7 -1 -9 -3 11 26 13 22 -15 16 -16 18 19 -18 -19 -22 -11 -23 -2 -26 -10 -12 29 -21
right_child=5 2 3 -5 -6 -7 -8 8 10 12 27 -13 -14 14 15 -17 17 20 -20 28 21 23 -24 -25 25 -27 -28 -29 -30 -31
leaf_value=-0.062307736911701543 0.042019715681438544 -0.062437116534854079 -0.057902246422050697 0.057729758515692411 0.014409193592057713 0.057680656965148673 -0.057932363234696117 -0.06174689382077593 -0.023125364916090987 0.062963636706217962 -0.062609988355351198 0.031431453156558119 0.057844981717122407 -0.080769331324180418 0.063521274423857049 0.056678089811374927 -0.089417683934869652 0.065685720678118314 -0.059965225559833774 0.068867048534562977 -0.068603700123233802 0.066207144190737741 -0.085278856158015795 -0.02461215253022505 -0.058954468307408997 0.034077360527622565 -0.06168058042273921 0.02169658876604913 0.065939706553329341 -0.080995676468909539
leaf_weight=8.6947401897050458 7.5701232552528364 0.93449554825202241 5.2960545858368269 1.1252952814102171 2.5963354473933569 35.775325898081064 26.810988294892013 3.7704890249297049 8.5342322196811384 1.9549765586853092 0.38633937342092339 0.84005432389676649 1.7710040248930443 0.63607379887252946 1.1290968134999264 2.3896278440952292 0.61125458870082949 2.1925407648086548 2.6118508423678577 0.97196204960346222 0.95568412123248014 1.0460957437753675 0.19662766158580769 0.83968522679060686 1.4671893022023139 5.4354255814105272 2.253984723240138 3.4683704231865704 1.1670394837856293 0.68211052566766739
leaf_count=960 51 102 473 1 61 46 2480 421 484 4 38 12 5 27 5 15 16 4 128 4 65 4 4 17 133 51 240 67 4 28
internal_value=1.11975e-10 -0.029575 0.00259997 -0.0376386 -0.0444472 0.0493624 -0.0472378 -0.0369785 -0.02554 0.0154613 -0.0167227 -0.0266575 0.0192615 0.015331 0.0105166 0.0144944 0.0062368 0.000398341 -0.0202896 0.00990146 0.0252379 -0.00597259 0.0494163 0.0257679 0.0288005 0.0143029 -0.0311807 0.0132469 0.0314211 0.00706629
internal_weight=134.115 83.867 26.5115 6.42135 57.3555 50.2481 54.7592 27.9482 19.2535 20.0901 15.483 11.6283 19.1556 17.3846 15.233 14.5969 12.2073 11.0782 6.04422 3.43237 5.03401 2.84147 2.1516 1.88578 14.4727 6.90261 10.7882 3.85471 2.82111 1.65407
internal_count=5950 5669 906 474 4763 281 4702 2222 1262 432 841 736 330 325 317 290 275 270 180 52 90 86 8 21 235 184 724 105 36 32
is_linear=0
shrinkage=0.05


Tree=14
num_leaves=31
num_cat=0
split_feature=0 8 7 1 1 0 7 1 8 1 6 6 1 7 1 6 1 8 7 1 1 1 1 8 8 1 1 1 1 1
split_gain=72.447 14.7847 5.31115 4.61952 3.51886 3.46793 2.51573 3.31181 2.43569 2.34245 1.82643 2.07808 1.01021 0.994961 3.61989 0.991333 0.965953 1.25438 0.871317 1.31385 0.860238 0.961676 1.79113 1.44274 1.18104 1.17861 1.86288 2.70016 2.03503 1.953
threshold=1.5000000000000002 7.5000000000000009 1.5000000000000002 0.85409998893737804 0.79975000023841869 3.5000000000000004 1.5000000000000002 0.73395001888275158 5.5000000000000009 0.72914999723434459 0.79587382078170787 0.53177833557128917 0.73414999246597301 1.5000000000000002 0.80895000696182262 0.85126817226409923 0.78575000166893016 6.5000000000000009 1.5000000000000002 0.82925000786781322 0.78435000777244579 0.72935000061988842 0.73155000805854808 9.5000000000000018 9.5000000000000018 0.73215001821517955 0.75094997882843029 0.73634999990463268 0.75124999880790722 0.76104998588562023
decision_type=2 2 2 2 2 2 2 2 2 2 2 2 2 2 2 2 2 2 2 2 2 2 2 2 2 2 2 2 2 2
left_child=1 4 9 -4 6 13 7 -1 -9 -3 11 12 -10 -2 -15 20 17 -14 -6 -20 21 24 -23 25 -11 -24 27 -27 -28 -30
right_child=5 2 3 -5 18 -7 -8 8 10 15 -12 -13 16 14 -16 -17 -18 -19 19 -21 -22 22 23 -25 -26 26 28 -29 29 -31
leaf_value=-0.061386038072692474 0.039940785858678642 -0.061531464516358693 -0.057083015979593824 0.056912091813806902 0.055562473751745826 0.056659290622871887 -0.057106996144562786 -0.060766322807468034 0.048031284286807197 0.061351468500154341 -0.060793819577944865 0.027554597650969782 -0.012021245959459234 -0.058001129794040922 0.032151470023814487 -0.061043531970989662 0.049581956912777475 -0.04873517133844936 -0.061573209930532148 0.027104221692970498 0.055730151679136475 -0.079158705419838493 0.05956493521065527 0.053038353060880061 -0.080730871132731502 0.015851854900687232 0.063717603435975864 -0.056367452063239093 -0.066935673150761876 0.02665790153533025
leaf_weight=8.5556850554421562 7.4868216169998032 0.91996955545619741 5.0894068460911503 1.0767420530319212 0.83813962340354842 34.618734702467918 25.777622959576547 3.6670313277281847 0.52866271696984668 1.8872143626213138 1.9529289724305261 3.0168689815327516 6.074940812773999 1.4037597998976705 5.3844530694186687 0.3671136568300416 0.44069696590304452 3.7705041114240885 0.66973644588142645 1.1099252980202434 1.7042357027530659 0.50144772883504529 1.0644203275442112 2.3085525073111048 0.15854746103286732 2.9081035191193205 2.0970296263694763 2.332238529343158 0.80947274062782559 1.7897410560399292
leaf_count=960 51 102 473 1 2 46 2480 421 7 4 202 35 321 133 51 36 2 274 50 9 5 23 5 15 4 48 4 112 55 19
internal_value=-1.42045e-10 -0.0288908 0.00310372 -0.037177 -0.0430801 0.0481084 -0.0458354 -0.0354611 -0.0240582 0.0162816 -0.0155303 -0.00913938 -0.0193754 0.0273714 0.0135085 0.0202745 -0.0228398 -0.0260816 0.0135285 -0.00626757 0.0219744 0.0183465 0.0136074 0.0171025 0.05034 0.00956135 0.0042049 -0.0162897 0.0270739 -0.00248993
internal_weight=130.311 81.417 25.0142 6.16615 56.4027 48.8938 53.7849 28.0073 19.4516 18.8481 15.7846 13.8317 10.8148 14.275 6.78821 17.9281 10.2861 9.84544 2.6178 1.77966 17.561 15.8568 13.811 13.3096 2.04576 11.001 9.93659 5.24034 4.69624 2.59921
internal_count=5950 5669 906 474 4763 281 4702 2222 1262 432 841 639 604 235 184 330 597 595 61 59 294 289 281 258 8 243 238 160 78 74
is_linear=0
shrinkage=0.05


Tree=15
num_leaves=31
num_cat=0
split_feature=0 8 7 1 0 1 7 1 8 1 6 6 6 2 2 1 8 1 1 1 1 8 1 0 1 1 1 1 1 1
split_gain=67.0815 13.3786 4.90519 4.29788 3.51694 3.21723 2.60134 3.33859 2.39184 2.17994 1.77387 1.77141 0.945364 0.945275 0.889647 1.30321 0.829434 2.15715 2.09238 1.93344 1.28571 1.16983 0.803155 1.30318 0.792083 1.30376 0.948036 0.880094 1.40405 0.83368
threshold=1.5000000000000002 7.5000000000000009 1.5000000000000002 0.85409998893737804 3.5000000000000004 0.79975000023841869 1.5000000000000002 0.73395001888275158 5.5000000000000009 0.72914999723434459 0.79587382078170787 0.51788753271102916 0.37595915794372564 2.0424714088439946 1.2550271153450014 0.78435000777244579 6.5000000000000009 0.75865000486373912 0.76854997873306286 0.76884999871253978 0.75554999709129345 7.5000000000000009 0.80105000734329235 1.0000000180025095e-35 0.77574998140335094 0.7511500120162965 0.75094997882843029 0.74764999747276317 0.74744999408721935 0.73414999246597301
decision_type=2 2 2 2 2 2 2 2 2 2 2 2 2 2 2 2 2 2 2 2 2 2 2 2 2 2 2 2 2 2
left_child=1 5 9 -4 12 6 7 -1 -9 -3 11 24 16 14 15 -11 -2 20 -19 -20 -18 -21 -7 -24 25 26 27 28 29 -10
right_child=4 2 3 -5 -6 22 -8 8 10 13 -12 -13 -14 -15 -16 -17 17 18 19 21 -22 -23 23 -25 -26 -27 -28 -29 -30 -31
leaf_value=-0.060579361912751165 0.038593743724338075 -0.060730362540263851 -0.056359269564973835 0.056165219461478746 0.05573945467546907 0.053330581240727259 -0.056378584477586702 -0.059893474580584243 0.043050762688258172 0.0064560744568397986 -0.059733539906250355 0.0241135958731983 -0.058572760011474989 -0.061208902883610687 0.037871013814985026 0.054460561943755793 -0.077894905156430286 -0.086295530539816034 0.068589119949700378 0.0092429935827371464 0.067584832823708946 -0.067333152448434325 -0.066787493873382453 0.024882968900530385 0.02770369924263727 -0.060374521728073949 0.051510223836070582 -0.066356384382764144 0.069495325213020528 -0.024053728509722146
leaf_weight=8.2750195185653883 7.8969493620097602 0.88940493483096972 4.8849391262046984 1.0270012617111204 33.419243801385164 0.82911428436636869 24.746549953706563 3.511182265821847 0.50537366792559257 9.8540471554733866 1.8854051274247456 3.2708710553124538 0.32285937387496311 0.35504581220447917 5.4475879082456222 1.6506305336952198 0.16536215879023086 0.69814379140734706 0.96079312264919314 1.504866455215961 1.8616302311420441 0.745968080125749 0.59027982503175702 1.1296027777716517 0.86944415420293886 1.8101781853474674 0.52636118791997422 0.83267313241958607 0.49145651422440995 5.5001805466599762
leaf_count=960 89 102 473 1 46 7 2480 421 6 249 202 38 29 33 43 5 5 13 4 44 5 46 36 18 14 198 6 65 4 308
internal_value=-5.81993e-10 -0.0282814 0.00275597 -0.0368119 0.0468916 -0.0419425 -0.0446197 -0.0340297 -0.0225889 0.0156112 -0.0142417 -0.00802944 0.0260044 0.0195343 0.0212254 0.0133435 0.0279783 0.013858 -0.00784333 0.00921061 0.0557166 -0.0161358 0.0129077 -0.00657919 -0.0180085 -0.0221201 -0.0133056 -0.0179602 -0.0117576 -0.0184068
internal_weight=126.458 78.8823 24.1087 5.91194 47.5758 54.7737 52.2247 27.4781 19.2031 18.1967 15.6919 13.8065 14.1566 17.3073 16.9523 11.5047 13.8337 5.93676 3.90977 3.21163 2.02699 2.25083 2.549 1.71988 10.5357 9.66622 7.85605 7.32968 6.49701 6.00555
internal_count=5950 5669 906 474 281 4763 4702 2222 1262 432 841 639 235 330 297 254 206 117 107 94 10 90 61 54 601 587 389 383 318 314
is_linear=0
shrinkage=0.05


Tree=16
num_leaves=31
num_cat=0
split_feature=0 8 7 1 0 1 7 1 8 1 6 6 7 1 6 1 1 1 1 1 6 2 1 8 7 1 1 1 1 1
split_gain=63.2025 12.4461 4.45251 4.01429 3.30764 3.11293 2.48735 3.13712 2.21337 1.99171 1.61384 1.68057 1.0759 3.14685 0.879795 0.870416 1.14269 0.838687 0.779234 0.952933 1.57685 1.06601 1.05806 0.963805 0.774829 1.14956 0.784237 0.768066 1.2147 0.752511
threshold=1.5000000000000002 7.5000000000000009 1.5000000000000002 0.85409998893737804 3.5000000000000004 0.79975000023841869 1.5000000000000002 0.73395001888275158 5.5000000000000009 0.72914999723434459 0.79587382078170787 0.51788753271102916 1.5000000000000002 0.80895000696182262 0.85126817226409923 0.77574998140335094 0.7511500120162965 0.75094997882843029 0.78435000777244579 0.72935000061988842 0.51788753271102916 1.4821125268936159 0.73155000805854808 9.5000000000000018 1.5000000000000002 0.82925000786781322 0.83254998922348034 0.74764999747276317 0.74744999408721935 0.7349500060081483
decision_type=2 2 2 2 2 2 2 2 2 2 2 2 2 2 2 2 2 2 2 2 2 2 2 2 2 2 2 2 2 2
left_child=1 5 9 -4 12 6 7 -1 -9 -3 11 15 -2 -14 18 16 17 27 19 23 21 22 -21 -11 -7 -26 -27 28 29 -10
right_child=4 2 3 -5 -6 24 -8 8 10 14 -12 -13 13 -15 -16 -17 -18 -19 -20 20 -22 -23 -24 -25 25 26 -28 -29 -30 -31
leaf_value=-0.05978577140553859 0.039315251439444955 -0.05992614293393711 -0.055717124192031432 0.055537656234943916 0.055102290212878241 0.055188143492007492 -0.055731759224889037 -0.059051405991933252 0.016837500290435351 0.059735017239798585 -0.058829043537641082 0.022770774519413287 -0.056837880153489256 0.028725984798230516 -0.059582904984899071 0.028548772677377033 -0.059454843405693528 0.046321774017918815 0.053057038147766938 -0.078062534905953773 0.034948415946043428 -0.070784829718750941 0.0073664904019412076 -0.076145466608437018 -0.059695870369833565 0.044793995172687055 -0.071195817408997331 -0.065085377633274155 0.064234185333551116 -0.028009376219374868
leaf_weight=7.9841678072698441 7.1185508482158166 0.85783865675330773 4.6719342162832609 0.98105347156524647 32.244969356805086 0.77154846489429396 23.680762565694749 3.3827919340692487 1.159161630086597 1.7455219924449981 1.8070842521265138 3.2616890324279657 1.3488540872931478 5.2844892088323832 0.35660651465877791 0.90400320291519243 1.7376029030419884 0.52646228298544873 1.5929193720221508 0.38012625090777508 4.6998494425788513 0.5148751172237106 7.7907858230173588 0.14104651287198056 0.61650472227483999 0.89862963557243325 0.1739364992827177 0.80509878834709514 0.46857676096260537 4.845173979178071
leaf_count=960 51 102 473 1 46 2 2480 421 33 4 202 38 133 51 36 14 198 6 5 17 48 28 188 4 50 3 6 65 4 281
internal_value=-5.81922e-10 -0.0277735 0.00232139 -0.0364093 0.0463461 -0.0412436 -0.0439162 -0.0335076 -0.0224052 0.0144314 -0.014415 -0.00855991 0.0258149 0.011327 0.0181353 -0.0183426 -0.022785 -0.0146208 0.0197786 0.0163076 0.0116187 -0.00100488 0.00339217 0.0495761 0.0136743 -0.00528878 0.0259841 -0.0190292 -0.0133007 -0.0193515
internal_weight=122.753 76.7558 23.7326 5.65299 45.9969 53.0232 50.5626 26.8818 18.8976 18.0796 15.5149 13.7078 13.7519 6.63334 17.2217 10.4461 9.54208 7.80447 16.8651 15.2722 13.3856 8.68579 8.17091 1.88657 2.46062 1.68907 1.07257 7.27801 6.47291 6.00434
internal_count=5950 5669 906 474 281 4763 4702 2222 1262 432 841 639 235 184 330 601 587 389 294 289 281 233 205 8 61 59 9 383 318 314
is_linear=0
shrinkage=0.05


Tree=17
num_leaves=31
num_cat=0
split_feature=0 8 7 1 0 1 7 1 8 1 1 6 6 7 1 1 1 8 1 1 1 1 1 1 1 1 0 1 8 8
split_gain=58.7661 11.443 4.07743 3.73588 3.29141 2.89707 2.46377 3.02189 2.08437 1.81687 1.57316 1.50398 1.52979 1.00829 2.86001 0.8355 1.4808 1.09542 1.78748 3.44032 1.16521 2.86119 0.915147 1.62433 0.842049 2.83639 0.798274 1.98087 0.796902 0.786879
threshold=1.5000000000000002 7.5000000000000009 1.5000000000000002 0.85409998893737804 3.5000000000000004 0.79975000023841869 1.5000000000000002 0.73395001888275158 5.5000000000000009 0.72914999723434459 0.77134999632835399 0.79587382078170787 0.51788753271102916 1.5000000000000002 0.80895000696182262 0.72935000061988842 0.73155000805854808 9.5000000000000018 0.75094997882843029 0.73634999990463268 0.75124999880790722 0.76104998588562023 0.73215001821517955 0.73334997892379772 0.73355001211166393 0.73614999651908886 2.3500000238418584 0.76884999871253978 9.5000000000000018 7.5000000000000009
decision_type=2 2 2 2 2 2 2 2 2 2 2 2 2 2 2 2 2 2 2 2 2 2 2 2 2 2 2 2 2 2
left_child=1 5 9 -4 13 6 7 -1 -9 -3 -6 12 -10 26 -15 28 -17 18 19 22 -20 -22 -18 -24 -25 -26 27 29 -11 -2
right_child=4 2 3 -5 10 -7 -8 8 11 15 -12 -13 -14 14 -16 16 17 -19 20 -21 21 -23 23 24 25 -27 -28 -29 -30 -31
leaf_value=-0.059094807418334776 0.015775695479366983 -0.059222627218292891 -0.055147015949684644 0.054952690653089532 -0.084407654871516635 0.013649386260276938 -0.055158700740016997 -0.058326158514050701 -0.017854695448109473 0.058839214708990617 0.055241661061947417 -0.058044989405067027 0.021452519191907264 -0.056139042641425829 0.027056680897162878 -0.072537513658959704 0.056551506793453325 0.049054500720430959 0.061973257162779086 -0.055240299401766627 -0.064448732577362805 0.036071741453056097 -0.082930988723971477 0.062239047593064062 -0.077314873108524904 0.062571807348235156 0.063105028138146751 -0.081531357861382214 -0.073135181686893966 0.057505961165052077
leaf_weight=7.6272431872785118 2.3259110152721387 0.81985798664391651 4.4664118345826855 0.93109762668609608 0.20299518108368175 2.3586254846304646 22.641724738292396 3.2071857936680344 10.283199952915309 1.6359700262546564 30.822821214795113 1.7186787822283793 3.2600373439490786 1.2864334904588757 5.2438144432380795 0.48733068536966939 1.2199089415371402 2.1471272688359013 1.9124263226985929 2.4130920111201704 0.89542422676458944 3.3804480815306306 0.4450224889442328 0.81489670276641879 0.66596364416182019 0.79489715397357941 2.1767348945140839 0.3890538103878497 0.12298281490802754 2.1964168399572372
leaf_count=960 28 102 473 1 4 61 2480 421 601 4 42 202 38 133 51 27 5 15 4 128 65 26 16 4 28 4 3 8 4 12
internal_value=5.93172e-10 -0.0272577 0.00190225 -0.0361543 0.0453334 -0.0404706 -0.0430897 -0.0326184 -0.0216844 0.0134712 0.054328 -0.0139844 -0.00839293 0.0248417 0.0106674 0.0169903 0.0132095 0.0160543 0.0104048 -0.00822357 0.0295314 0.0150214 0.0205673 0.0044331 0.0215171 -0.00119843 0.0379004 0.0267297 0.0496118 0.0360434
internal_weight=118.894 74.2496 23.1529 5.39751 44.6442 51.0967 48.7381 26.0963 18.4691 17.7553 31.0258 15.2619 13.5432 13.6184 6.53025 16.9355 15.1765 14.6892 12.5421 6.35378 6.1883 4.27587 3.94069 2.72078 2.27576 1.46086 7.08812 4.91138 1.75895 4.52233
internal_count=5950 5669 906 474 281 4763 4702 2222 1262 432 46 841 639 235 184 330 322 295 280 185 95 91 57 52 36 32 51 48 8 40
is_linear=0
shrinkage=0.05


Tree=18
num_leaves=31
num_cat=0
split_feature=0 8 7 1 0 1 7 1 8 1 6 6 1 1 1 8 1 1 8 1 4 1 1 1 1 8 1 1 1 1
split_gain=54.7649 9.99858 3.70518 3.47992 3.24976 2.74693 2.63553 3.09962 2.0904 1.67777 1.49321 1.33505 1.13327 2.43038 1.73175 1.58968 1.08046 0.973541 1.01766 0.93806 0.920534 0.90611 0.807121 0.95517 1.21928 1.19414 1.24788 2.10834 1.68957 1.78757
threshold=1.5000000000000002 7.5000000000000009 1.5000000000000002 0.85409998893737804 4.3499999046325692 0.79975000023841869 1.5000000000000002 0.73395001888275158 5.5000000000000009 0.72914999723434459 0.79587382078170787 0.53177833557128917 0.81325000524520885 0.76884999871253978 0.80895000696182262 5.5000000000000009 0.73414999246597301 0.77574998140335094 6.5000000000000009 0.75554999709129345 1.0000000180025095e-35 0.7511500120162965 0.79069998860359203 0.72935000061988842 0.73155000805854808 9.5000000000000018 0.73215001821517955 0.75094997882843029 0.75124999880790722 0.76104998588562023
decision_type=2 2 2 2 2 2 2 2 2 2 2 2 2 2 2 2 2 2 2 2 2 2 2 2 2 2 2 2 2 2
left_child=1 5 9 -4 12 6 7 -1 -9 -3 11 16 13 19 -15 -16 -10 18 21 -2 -14 -18 23 -11 -25 26 -26 -28 -29 -30
right_child=4 2 3 -5 -6 -7 -8 8 10 22 -12 -13 20 14 15 -17 17 -19 -20 -21 -22 -23 -24 24 25 -27 27 28 29 -31
leaf_value=-0.0584777085489573 -0.072871433815667894 -0.058622046853753766 -0.054647825368579032 0.054459734836929202 0.054744611785219312 0.013368958915778309 -0.054656227578368369 -0.057702668196456801 0.046355825388106467 0.048963069493315588 -0.057288007569534706 0.022070071370562116 -0.062528466330892707 -0.044846120775959522 0.054397990765835062 -0.06869028591785957 -0.0027526614810976587 0.029404310183823668 -0.045757018242860714 0.041028464794907703 0.045181716967364415 -0.057990401674708682 0.058651833826328215 -0.071555972027461764 0.054258378932383604 0.046354324974961392 -0.024132950289808303 0.060880721022839659 -0.0626940093005902 0.022877492666126042
leaf_weight=7.3383602378889945 0.18780359439551642 0.78918707882986083 4.2550586406141511 0.88234353065490712 27.870840340852737 2.3726528016850343 21.582537454552948 3.0762804215773967 0.6632026918232431 1.6543813459575201 1.6644311090931285 3.0445184521377078 0.20483067631721397 2.1997505901381378 1.114505138248205 0.34305173018947233 4.7591859363019431 0.92272326350212175 3.4788957349956036 4.8260343307629228 6.2847650963813066 0.87964084371924389 1.0397672653198231 0.45712648797780175 1.147839494049548 2.0694809406995764 4.8776758876629156 1.7971396744251249 0.8329336587339643 2.283310697413981
leaf_count=960 7 102 473 1 41 61 2480 421 7 8 202 35 11 140 2 15 207 14 269 38 27 107 2 27 5 15 180 4 65 24
internal_value=6.38915e-10 -0.0267106 0.00128862 -0.0359087 0.0446105 -0.0391327 -0.0417601 -0.0309835 -0.0200709 0.0125636 -0.0125598 -0.00714473 0.0259803 0.014154 -0.0168396 0.0254278 -0.0154545 -0.0195373 -0.0244902 0.0367621 0.0417821 -0.0113696 0.0160401 0.0131097 0.00870477 0.0115252 0.00493604 -0.000846188 0.0222713 5.28623e-06
internal_weight=114.9 71.8687 22.0862 5.1374 43.0316 49.7824 47.4098 25.8272 18.4889 16.9488 15.4126 13.7482 15.1607 8.67115 3.65731 1.45756 10.7036 10.0404 9.11772 5.01384 6.4896 5.63883 16.1597 15.1199 13.4655 13.0084 10.9389 9.79106 4.91338 3.11624
internal_count=5950 5669 906 474 281 4763 4702 2222 1262 432 841 639 240 202 157 17 604 597 583 45 38 314 330 328 320 293 278 273 93 89
is_linear=0
shrinkage=0.05


Tree=19
num_leaves=31
num_cat=0
split_feature=0 7 1 1 8 0 1 8 6 6 1 7 1 1 2 0 1 8 8 1 1 1 8 4 1 6 1 1 1 1
split_gain=51.3483 8.40694 5.74738 5.60215 3.84446 3.22111 2.45748 1.89063 1.53516 1.41114 1.31582 0.946609 2.41817 0.830183 1.02859 0.754514 1.40483 0.784708 3.42333 1.10801 0.968448 0.752225 0.791823 0.764895 0.700984 2.08967 0.607231 0.994561 1.42073 1.44825
threshold=1.5000000000000002 1.5000000000000002 0.82925000786781322 0.72914999723434459 7.5000000000000009 3.5000000000000004 0.78575000166893016 5.5000000000000009 0.79587382078170787 0.51788753271102916 0.77134999632835399 1.5000000000000002 0.80895000696182262 0.79069998860359203 1.2550271153450014 2.3500000238418584 0.76884999871253978 7.5000000000000009 6.5000000000000009 0.76265001296997081 0.75734999775886547 0.84415000677108776 7.5000000000000009 1.0000000180025095e-35 0.74975001811981212 0.61753937602043163 0.73395001888275158 0.7349500060081483 0.74024999141693126 0.74044999480247509
decision_type=2 2 2 2 2 2 2 2 2 2 2 2 2 2 2 2 2 2 2 2 2 2 2 2 2 2 2 2 2 2
left_child=1 3 -3 -1 6 11 7 -5 9 26 -7 15 -13 14 -6 16 17 18 19 -2 -19 22 23 -14 -11 -26 -9 -28 -29 -30
right_child=5 2 -4 4 13 10 -8 8 -10 24 -12 12 21 -15 -16 -17 -18 20 -20 -21 -22 -23 -24 -25 25 -27 27 28 29 -31
leaf_value=-0.058048569000109886 -0.078390860918933769 -0.054288277372323474 0.036245948392063819 -0.057243215567468454 0.0010736364829683712 -0.080298599038045815 0.050224801300802847 -0.0586777613143648 -0.056361982025418048 0.03154694172879443 0.054336406173013566 -0.055014403815249947 -0.061583781328527931 0.058061793418369957 0.028928571483593735 0.061979706625009651 -0.07539744307177132 -0.072670834208897958 -0.078823166144285084 0.065715535178557147 0.064578874780710185 -0.067358016798884632 -0.06044754780343034 0.037547001273352809 0.073847725139684364 -0.086600422501856275 0.023796092627807925 -0.064753308031843329 0.071753097902857221 -0.018391195255222006
leaf_weight=5.7939179902896276 0.14651572518050526 25.217135190498087 1.8839784255251277 3.409496085252619 9.7064283564686722 0.1826473549008395 1.2033073753118504 0.8904490140266742 2.088031909428536 2.4723505144938822 28.298218138515949 1.1826419243589041 0.20365069434046734 0.98210558295250017 5.0325425970368096 2.0164401829242706 0.32184322923421849 0.13776447251439128 0.70777260698378075 1.4887105673551557 1.916745141148567 0.21366113238036621 0.23776225373148907 4.3746692053973675 0.34219653904438008 0.49863386712968349 1.3821518858894695 1.5800744686275701 0.47760684229433525 6.640872745309025
leaf_count=790 4 3000 13 489 252 4 5 129 270 34 42 133 11 2 76 3 8 4 16 8 8 7 15 18 2 8 33 130 3 433
internal_value=1.49579e-09 -0.0262335 -0.0479946 -0.012357 -0.00514482 0.0440726 -0.0191504 -0.0233705 -0.0163166 -0.0104629 0.053473 0.0233953 0.00931814 0.0135505 0.0105846 0.0363787 0.0254401 0.0328201 0.0130418 0.0528037 0.0553756 0.0244446 0.0285174 0.0331375 0.0181347 -0.0213021 -0.019099 -0.015603 -0.0218633 -0.0123431
internal_weight=111.03 69.6013 27.1011 42.5002 36.7062 41.429 20.9852 19.7819 16.3724 14.2843 28.4809 12.9482 6.21239 15.7211 14.739 6.73579 4.71935 4.39751 2.343 1.63523 2.05451 5.02974 4.81608 4.57832 3.31318 0.84083 10.9712 10.0807 8.69855 7.11848
internal_count=5950 5669 3013 2656 1866 281 1536 1531 1042 772 46 235 184 330 328 51 48 40 28 12 12 51 44 29 44 10 728 599 566 436
is_linear=0
shrinkage=0.05


Tree=20
num_leaves=31
num_cat=0
split_feature=0 8 7 1 0 7 1 1 1 1 1 1 1 1 1 1 1 1 7 1 1 2 1 1 8 1 1 1 8 4
split_gain=48.3616 8.60196 3.06992 3.08403 2.87948 2.4414 3.38486 2.17222 2.11949 1.87616 1.9963 2.27404 1.4311 1.17611 1.90326 1.27237 1.61179 1.07918 0.998509 2.23552 0.7902 0.894224 0.774701 1.74023 1.2831 1.1084 1.72067 0.672652 0.707438 0.671854
threshold=1.5000000000000002 7.5000000000000009 1.5000000000000002 0.85409998893737804 3.5000000000000004 1.5000000000000002 0.73395001888275158 0.82925000786781322 0.78575000166893016 0.7349500060081483 0.74024999141693126 0.74044999480247509 0.72914999723434459 0.7511500120162965 0.75094997882843029 0.74764999747276317 0.74744999408721935 0.77134999632835399 1.5000000000000002 0.80895000696182262 0.78435000777244579 1.2550271153450014 0.74244999885559093 0.74265000224113475 6.5000000000000009 0.74555000662803661 0.74575001001358043 0.84415000677108776 7.5000000000000009 1.0000000180025095e-35
decision_type=2 2 2 2 2 2 2 2 2 2 2 2 2 2 2 2 2 2 2 2 2 2 2 2 2 2 2 2 2 2
left_child=1 5 12 -4 18 6 -1 -7 9 -8 -11 -12 -3 14 15 16 22 -6 -2 -20 21 -14 -13 -24 -25 -26 -27 28 29 -21
right_child=4 2 3 -5 17 7 8 -9 -10 10 11 13 20 -15 -16 -17 -18 -19 19 27 -22 -23 23 24 25 26 -28 -29 -30 -31
leaf_value=-0.057390991134326969 0.037669890265411426 -0.057499596098140288 -0.053780368609584565 0.053674960350451176 -0.076187080895634848 -0.053884876173482782 0.022540745030321788 0.021347300550522582 0.04842965661150142 -0.06286462164562949 0.066786819724936858 -0.060900959692480966 0.0011267293641833802 -0.048062101114342573 0.053338778927117927 -0.061080833061115704 0.059127769651859445 0.053699320537544032 -0.054508989777236977 -0.060339767432197822 0.049458704974356123 0.027120686885559565 0.059548937391768676 -0.061382458107805508 -0.063385390994382229 0.073602491715864041 -0.063758875245578189 -0.065345530380806968 -0.059311926604448541 0.036114882564504437
leaf_weight=6.8123660529963699 6.3323601838201267 0.73414812982082978 3.8562825964763752 0.80756568908691395 0.16086924448609607 20.125150664709512 2.19950291048736 1.0075136814266432 1.1886086501181115 3.0710430345498017 0.7470939215272655 0.96495842980220725 9.2734485203400236 3.3615695079788566 0.9573596310801803 1.593432545661926 0.72515087435021985 27.123014383018017 1.1197919975966213 0.18851441331207741 1.4227656498551358 5.1437690090388051 0.712941168341786 1.4334696545265615 0.42750879144296061 0.74872879683971383 0.32780007924884558 0.20270993933081616 0.22254720656201232 4.2668070867657661
leaf_count=960 51 102 473 1 4 2530 62 9 5 293 5 98 249 392 10 170 7 42 133 11 5 76 12 146 37 4 23 7 15 18
internal_value=-2.69019e-09 -0.0256941 0.000662017 -0.035174 0.0438706 -0.0377566 -0.0272691 -0.0502981 -0.0161527 -0.0205974 -0.0268931 -0.0176872 0.010746 -0.0232955 -0.0127455 -0.0218695 -0.0101703 0.0529335 0.0238208 0.00920538 0.0139091 0.0104008 -0.0210581 -0.010526 -0.0275334 0.00472749 0.0317763 0.0238239 0.027688 0.0320337
internal_weight=107.259 67.6422 21.238 4.66385 39.6166 46.4042 25.2715 21.1327 18.4592 17.2706 15.0711 12 16.5741 11.2529 7.89135 6.93399 5.34056 27.2839 12.3327 6.00037 15.84 14.4172 4.61541 3.65045 2.93751 1.50404 1.07653 4.88058 4.67787 4.45532
internal_count=5950 5669 906 474 281 4763 2224 2539 1264 1259 1197 904 432 899 507 497 327 46 235 184 330 325 320 222 210 64 27 51 44 29
is_linear=0
shrinkage=0.05


Tree=21
num_leaves=31
num_cat=0
split_feature=0 8 7 1 0 7 1 1 1 1 1 1 1 1 1 1 1 7 1 1 1 1 8 1 1 1 1 1 1 1
split_gain=45.0399 7.89454 2.75264 2.87593 2.74833 2.37446 3.24838 2.05238 1.90473 1.7504 1.75259 1.87967 1.29117 1.117 1.88937 1.1111 1.76885 0.929047 2.06246 0.789598 0.903767 1.20006 1.14764 1.25651 2.77112 1.54656 1.65484 0.983275 1.20329 0.81534
threshold=1.5000000000000002 7.5000000000000009 1.5000000000000002 0.85409998893737804 3.5000000000000004 1.5000000000000002 0.73395001888275158 0.82925000786781322 0.78575000166893016 0.7349500060081483 0.74024999141693126 0.74044999480247509 0.72914999723434459 0.7511500120162965 0.75094997882843029 0.74764999747276317 0.74744999408721935 1.5000000000000002 0.80895000696182262 0.79069998860359203 0.72935000061988842 0.73155000805854808 9.5000000000000018 0.75094997882843029 0.73634999990463268 0.75124999880790722 0.76104998588562023 0.7616499960422517 0.76684999465942394 0.73215001821517955
decision_type=2 2 2 2 2 2 2 2 2 2 2 2 2 2 2 2 2 2 2 2 2 2 2 2 2 2 2 2 2 2
left_child=1 5 12 -4 17 6 -1 -7 9 -8 -11 -12 -3 14 15 16 -13 -2 -19 20 -14 -22 23 24 29 -25 -27 -28 -29 -23
right_child=4 2 3 -5 -6 7 8 -9 -10 10 11 13 19 -15 -16 -17 -18 18 -20 -21 21 22 -24 25 -26 26 27 28 -30 -31
leaf_value=-0.056740975719760514 0.036853076225415907 -0.056835798963359829 -0.053417793118063023 0.053300020918714254 0.05235521119006889 -0.053509694101899097 0.020430038143272433 0.02011076034653056 0.046520875392399005 -0.061267575406169478 0.064025872894638 -0.02335171534439472 0.046145204223135311 -0.047228460510448649 0.051905499229729105 -0.059726600478587723 0.058634766245416983 -0.054061605230123891 0.023147556045233587 0.057127584127196311 -0.071205510226861266 0.052146287490922517 0.043213338040568372 0.059663103036206346 -0.054201350872380531 -0.060821131663065346 0.061430776424134463 -0.081127930915151483 0.023515677111706865 -0.00028660362631070081
leaf_weight=6.5408870773389962 6.2363231536000949 0.70428529661149397 3.6566120423376551 0.76305472850799549 26.050921600311995 19.077882717829201 2.320625973865396 0.99610422737896342 1.1564372610300768 2.8764022532850495 0.66430909000337024 4.2359943734481913 1.5179305225610704 3.2301996746100485 1.0004255622625349 1.4952850053086875 0.77883679047226895 1.0582527560181914 4.7350983796641231 0.92700958251953203 0.49195963330566783 1.0315020643174615 1.9971898123621947 1.6880562603473661 2.4519324349239469 0.81833554664626751 0.93699385225772891 0.37679173797368992 1.0140685606747863 2.6365642454475164
leaf_count=960 51 102 473 1 46 2530 62 9 5 293 5 320 8 392 10 170 7 133 51 2 27 5 15 4 128 65 4 9 11 52
internal_value=6.79592e-11 -0.0251756 7.17877e-05 -0.034993 0.0432274 -0.0371311 -0.0266185 -0.0498565 -0.0155237 -0.0198454 -0.0263899 -0.0175936 0.00941176 -0.0226417 -0.0120672 -0.0218981 -0.0106187 0.0234606 0.00904401 0.0123483 0.00957379 0.00544441 0.00835595 0.00200071 -0.0130498 0.0210542 0.000338931 0.0218392 -0.00483285 0.0144581
internal_weight=103.466 65.3857 21.0123 4.41967 38.0806 44.3734 24.2994 20.074 17.7585 16.6021 14.2815 11.4051 16.5926 10.7407 7.51054 6.51012 5.01483 12.0297 5.79335 15.8883 14.9613 13.4434 12.9514 10.9542 6.12 4.83425 3.14619 2.32785 1.39086 3.66807
internal_count=5950 5669 906 474 281 4763 2224 2539 1264 1259 1197 904 432 899 507 497 327 235 184 330 328 320 293 278 185 93 89 24 20 57
is_linear=0
shrinkage=0.05


Tree=22
num_leaves=31
num_cat=0
split_feature=0 8 0 7 1 7 1 1 1 8 1 6 6 7 1 1 8 8 1 1 1 8 1 1 1 1 1 1 8 1
split_gain=41.7876 7.59342 2.73448 2.65118 2.67091 2.24471 3.09913 1.92777 1.70539 1.63709 1.25472 1.21284 1.22464 0.86182 1.87382 0.82231 1.20327 1.19738 0.729152 0.772235 1.05497 1.02972 1.05906 2.45395 1.44934 1.53568 0.901361 0.923857 0.774214 0.77067
threshold=1.5000000000000002 7.5000000000000009 3.5000000000000004 1.5000000000000002 0.85409998893737804 1.5000000000000002 0.73395001888275158 0.82925000786781322 0.78575000166893016 5.5000000000000009 0.72914999723434459 0.79587382078170787 0.51788753271102916 1.5000000000000002 0.80895000696182262 0.73414999246597301 6.5000000000000009 6.5000000000000009 0.79069998860359203 0.72935000061988842 0.73155000805854808 9.5000000000000018 0.75094997882843029 0.73634999990463268 0.75124999880790722 0.76104998588562023 0.7616499960422517 0.76684999465942394 9.5000000000000018 0.73614999651908886
decision_type=2 2 2 2 2 2 2 2 2 2 2 2 2 2 2 2 2 2 2 2 2 2 2 2 2 2 2 2 2 2
left_child=1 5 13 10 -5 6 -1 -7 9 -8 -3 12 15 -2 -15 16 -11 -17 19 28 -21 22 23 29 -24 -26 -27 -28 -12 -22
right_child=2 3 -4 4 -6 7 8 -9 -10 11 18 -13 -14 14 -16 17 -18 -19 -20 20 21 -23 24 -25 25 26 27 -29 -30 -31
leaf_value=-0.056320481268598371 0.035542613233678022 -0.056391891928261252 0.051820128480973386 -0.053104408561728968 0.052965549168499299 -0.053185337267171631 -0.055727604796712654 0.018836985821919783 0.043825211677909259 -0.092601859586210741 0.056260676924542466 -0.055174104978559096 0.02311102240976062 -0.053674458710337762 0.021831460032931356 -0.0063138850601184571 0.067721077956317211 -0.045003302551951792 0.056673036586042981 -0.068887040778294925 0.0027590656407464019 0.042160367081620874 0.058623300998210573 -0.051631529897725653 -0.06001092911533621 0.060061202611558354 -0.07842360433797492 0.019207730021464295 -0.069265245368238831 0.060148854349298432
leaf_weight=6.3425854803063002 6.1745005529373866 0.68447176739573734 24.852749016135931 3.4599485476501277 0.71637344360351551 18.046255311928693 2.6299178856425049 0.97952654026448627 1.1331904996186484 0.14657912030815978 1.3215505778789491 1.4910028260201205 2.5882370406761757 0.99729624530300487 4.6664444599300623 5.6851829946972412 0.58063566312193871 3.0849726563319564 0.89191323518753129 0.45151099935173888 2.8785440726205676 1.9624671190977103 1.6278755962848661 2.3020878778770566 0.78597248299047384 0.8944308161735538 0.32329110056161858 0.96729915682226419 0.13542636483907688 0.73417682945728291
leaf_count=960 51 102 46 473 1 2530 420 9 5 3 4 202 38 133 51 321 3 272 2 27 53 15 4 128 65 4 9 11 4 4
internal_value=-9.15076e-10 -0.024754 0.0423994 0.000556785 -0.03491 -0.0366883 -0.026414 -0.0494773 -0.0154747 -0.019621 0.00983694 -0.0126268 -0.00737778 0.0226219 0.00853605 -0.0156866 0.035406 -0.0199232 0.0128043 0.0100843 0.00619508 0.00891229 0.00270626 -0.0112866 0.0207031 -7.41775e-05 0.0214856 -0.00524879 0.044593 0.0144218
internal_weight=99.5364 62.8454 36.691 20.1373 4.17632 42.7081 23.6823 19.0258 17.3397 16.2065 15.961 13.5766 12.0856 11.8382 5.66374 9.49737 0.727215 8.77016 15.2765 14.3846 12.9277 12.4761 10.5137 5.91481 4.59887 2.97099 2.18502 1.29059 1.45698 3.61272
internal_count=5950 5669 281 906 474 4763 2224 2539 1264 1259 432 839 637 235 184 599 6 593 330 328 320 293 278 185 93 89 24 20 8 57
is_linear=0
shrinkage=0.05


Tree=23
num_leaves=31
num_cat=0
split_feature=0 8 0 7 1 7 1 1 1 8 1 6 6 1 7 1 8 0 0 1 1 1 1 8 1 1 1 1 1 1
split_gain=38.687 7.19881 2.74675 2.52677 2.47812 2.15312 2.98231 1.81348 1.52635 1.55941 1.20534 1.13731 1.11028 0.816123 1.49229 2.2368 0.730168 0.968972 0.718975 1.26044 0.681132 0.71845 1.04212 0.959562 0.979842 1.64042 1.365 1.38166 1.16625 1.47714
threshold=1.5000000000000002 7.5000000000000009 4.3499999046325692 1.5000000000000002 0.85409998893737804 1.5000000000000002 0.73395001888275158 0.82925000786781322 0.78575000166893016 5.5000000000000009 0.72914999723434459 0.79587382078170787 0.51788753271102916 0.83994999527931224 1.5000000000000002 0.80895000696182262 6.5000000000000009 3.5000000000000004 2.3500000238418584 0.76884999871253978 0.79069998860359203 0.72935000061988842 0.73155000805854808 9.5000000000000018 0.73215001821517955 0.75094997882843029 0.75124999880790722 0.76104998588562023 0.73634999990463268 0.73614999651908886
decision_type=2 2 2 2 2 2 2 2 2 2 2 2 2 2 2 2 2 2 2 2 2 2 2 2 2 2 2 2 2 2
left_child=1 5 13 10 -5 6 -1 -7 9 -8 -3 12 -11 14 18 -16 -17 -18 19 -2 21 -12 -23 24 -24 28 -27 -28 29 -26
right_child=2 3 -4 4 -6 7 8 -9 -10 11 20 -13 -14 -15 15 16 17 -19 -20 -21 -22 22 23 -25 25 26 27 -29 -30 -31
leaf_value=-0.056001137918211541 0.030755122922309676 -0.056069601394213332 0.052354823011607626 -0.052824515108278493 0.052666782791073445 -0.052895865176439176 -0.055391776505594084 0.017661909936042691 0.041365725828531742 -0.015369864449118743 0.044656616119002845 -0.054730835254230226 0.021793204596010085 0.050218553454849268 -0.061517453396190691 0.028793675044700942 -0.062461526919263023 0.059464039247216639 0.060465876374898614 -0.071657965045586955 0.056251805476388334 -0.068916454673935854 0.050412883797249314 0.041989817885709296 -0.024127494265264938 0.057953690666518412 -0.059180025166530981 0.0203042871127595 -0.049199603579069641 0.058796859677398255
leaf_weight=6.1090378388762501 3.9630916193127614 0.6597742061130728 22.069535821676254 3.2676885505206879 0.67103153467178334 17.038664506282661 2.5089840772561756 0.96209758333861728 1.1122049186378706 9.3488423158414644 1.3730212189257116 1.4193124817684282 2.5601490773260585 2.3613433111459008 1.2207917058840392 2.7959412438794975 0.54477402754127968 0.23249737918376923 1.8244782388210294 0.32507948204874981 0.8576223552227028 0.44128777459263702 0.99146234989165982 1.893179181963206 1.8059613397344931 1.545279413461685 0.74019116861745748 2.0919098556041718 2.1777913090772927 0.76430548727512349
leaf_count=960 40 102 41 473 1 2530 420 9 5 599 8 202 38 12 135 16 25 1 3 8 2 27 5 15 48 4 65 24 128 4
internal_value=6.69455e-10 -0.0243312 0.0415463 0.000871325 -0.0348522 -0.0361658 -0.0260493 -0.0491247 -0.0152539 -0.0192302 0.0100427 -0.0124229 -0.00738069 0.0235677 0.0177976 -0.00308651 0.0168765 -0.0259912 0.0341766 0.0229913 0.0130136 0.0103312 0.00654615 0.00931888 0.00320516 -0.00192387 0.0201547 -0.000469543 -0.0222788 0.000531245
internal_weight=95.6773 60.3398 35.3375 19.2805 3.93872 41.0593 23.0585 18.0008 16.9495 15.8373 15.3418 13.3283 11.909 13.268 10.9067 4.794 3.57321 0.777271 6.11265 4.28817 14.682 13.8244 12.4514 12.0101 10.1169 9.12544 4.37738 2.8321 4.74806 2.57027
internal_count=5950 5669 281 906 474 4763 2224 2539 1264 1259 432 839 637 240 228 177 42 26 51 48 330 328 320 293 278 273 93 89 180 52
is_linear=0
shrinkage=0.05


Tree=24
num_leaves=31
num_cat=0
split_feature=0 7 1 1 6 0 8 1 1 8 1 1 1 1 1 1 1 1 8 7 1 1 0 1 8 8 1 1 1 6
split_gain=36.1326 6.49107 4.40543 3.99045 2.89752 2.61585 2.0265 1.33491 1.46767 1.47191 1.43554 1.60861 1.42397 0.816134 0.992365 1.11843 1.60627 0.882821 1.31226 0.756029 1.56279 0.690697 0.681338 1.07524 0.67589 2.69636 0.939931 0.923954 0.624215 0.806259
threshold=1.5000000000000002 1.5000000000000002 0.72914999723434459 0.82925000786781322 0.85126817226409923 3.5000000000000004 7.5000000000000009 0.77574998140335094 0.7511500120162965 5.5000000000000009 0.74024999141693126 0.7349500060081483 0.73395001888275158 0.74044999480247509 0.74244999885559093 0.74265000224113475 0.74555000662803661 0.74564999341964733 6.5000000000000009 1.5000000000000002 0.80895000696182262 0.74744999408721935 2.3500000238418584 0.76884999871253978 7.5000000000000009 6.5000000000000009 0.76265001296997081 0.75734999775886547 0.79069998860359203 0.42759820818901068
decision_type=2 2 2 2 2 2 2 2 2 2 2 2 2 2 2 2 2 2 2 2 2 2 2 2 2 2 2 2 2 2
left_child=1 2 -1 -3 6 19 7 8 9 -4 11 12 -11 -12 -15 -16 -17 -18 21 22 -21 -19 23 24 25 26 -2 -26 29 -8
right_child=5 3 4 -5 -6 -7 28 -9 -10 10 13 -13 -14 14 15 16 17 18 -20 20 -22 -23 -24 -25 27 -27 -28 -29 -30 -31
leaf_value=-0.055839827547127997 -0.073021743551040033 -0.05261539312121423 -0.056254949664357394 0.029348701821679635 -0.05413078991511 0.051041623045496337 0.0014145724022324347 0.030740631733879621 -0.056724925047664077 -0.056416217037611599 0.06223445841811253 -0.06304090624539857 0.023166779045915076 -0.061112258280724134 0.066533541663457846 -0.063962375017846934 0.067253468741536454 -0.059228733915042464 -0.061414997623491445 -0.052989671343665834 0.019905548620808268 0.029599160317980162 0.060047377121555473 -0.069407640888351246 -0.069255262530545314 -0.073708060688586124 0.062482106088637759 0.062060215099392795 0.055858802916952659 0.027173028855441345
leaf_weight=4.8559867870062581 0.14222571067511935 19.177873917855326 1.5543063823133767 1.6095906612463284 2.7255889326333991 22.459654714912176 8.0821594912558741 1.6153379273600865 2.0188751174136987 0.81343099707737421 0.68944877944886673 1.772395492531359 1.8190587167628107 0.5213999357074498 0.77797538228332985 0.77296760817989696 0.66959256120026145 0.24372403323650438 0.61426314525306214 0.88205800764262665 4.4180652922950685 2.1434959499165416 1.7410004436969755 0.29370294138789166 0.14537520334124554 0.65533403493463982 1.2774390578269956 1.7051839679479597 0.8286875784397133 4.8675001077353963
leaf_count=790 4 3000 263 13 428 46 230 26 287 139 5 144 39 45 7 58 5 20 55 133 51 51 3 8 4 16 8 8 2 62
internal_value=3.28114e-10 -0.0238703 -0.0114163 -0.0462688 -0.00478488 0.0411809 -0.000272273 -0.0123611 -0.0171924 -0.0107519 -0.00422602 -0.0262169 -0.00142412 0.0108322 0.00466175 0.011229 0.00154742 0.0153409 0.00375989 0.0215131 0.00777417 0.0205302 0.0337303 0.0228711 0.0297752 0.0101822 0.048907 0.0517444 0.0137888 0.0110966
internal_weight=91.8937 58.1737 37.3862 20.7875 32.5302 33.72 29.8046 16.0263 14.4109 12.3921 10.8378 4.40489 2.63249 6.43287 5.74342 5.22202 4.44404 3.67108 3.00148 11.2604 5.30012 2.38722 5.96026 4.21926 3.92556 2.075 1.41966 1.85056 13.7783 12.9497
internal_count=5950 5669 2656 3013 1866 281 1438 1144 1118 831 568 322 178 246 241 196 189 131 126 235 184 71 51 48 40 28 12 12 294 292
is_linear=0
shrinkage=0.05


Tree=25
num_leaves=31
num_cat=0
split_feature=0 7 1 1 6 0 1 6 8 7 1 0 1 8 8 1 1 1 1 1 4 8 8 1 8 8 1 1 1 1
split_gain=33.6585 6.1608 4.15352 3.69269 2.71239 2.50272 1.90855 2.45181 1.36469 0.755649 1.42092 0.622313 0.956597 0.594868 2.42204 0.815756 0.775443 0.585602 0.717044 0.553888 0.565149 0.598729 0.519259 1.06787 0.518784 0.458429 0.566052 0.768041 0.773307 0.473683
threshold=1.5000000000000002 1.5000000000000002 0.72914999723434459 0.82925000786781322 0.85126817226409923 3.5000000000000004 0.78435000777244579 0.42759820818901068 5.5000000000000009 1.5000000000000002 0.80895000696182262 2.3500000238418584 0.76884999871253978 7.5000000000000009 6.5000000000000009 0.75734999775886547 0.76265001296997081 0.72935000061988842 0.73155000805854808 0.84415000677108776 1.0000000180025095e-35 7.5000000000000009 5.5000000000000009 0.77134999632835399 4.5000000000000009 9.5000000000000018 0.73194998502731334 0.73334997892379772 0.73355001211166393 0.74024999141693126
decision_type=2 2 2 2 2 2 2 2 2 2 2 2 2 2 2 2 2 2 2 2 2 2 2 2 2 2 2 2 2 2
left_child=1 2 -1 -3 6 9 7 8 -4 11 -11 12 13 14 16 -15 -2 -10 -19 20 -12 24 -7 -24 -22 26 -20 -28 -29 -30
right_child=5 3 4 -5 -6 22 -8 -9 17 10 19 -13 -14 15 -16 -17 -18 18 25 -21 21 -23 23 -25 -26 -27 27 28 29 -31
leaf_value=-0.05532411883330908 -0.069761233717532553 -0.052383653879853512 -0.05541735759543618 0.027812963010759396 -0.05375789657501822 0.014987632647870206 0.042544412844757559 0.019791941149702921 0.038285611609526884 -0.052715656862352946 -0.058234862806571933 0.059548835495691135 -0.067064792680267313 -0.066933070321599911 -0.070873349891046308 0.060707722808993392 0.060986976160622625 -0.064729266069422767 0.038254031567632726 -0.062420115542345604 -0.084399108150060367 -0.056881069181289247 -0.073405561299097394 0.053450970471002168 0.0344866528424378 0.024428005151465787 -0.068283663101398218 0.056033377776125728 -0.027391588197771662 -0.006909765239774511
leaf_weight=4.6591573168989262 0.12513765878975291 18.043724954128269 1.7824430693872404 1.5594466286711384 2.5947989749256513 0.97119863331318157 2.37518754787743 7.6102755377069107 0.61883497470990079 0.82674211100675155 0.20484226569533337 1.659718334674835 0.27388358116149891 0.13563795387744892 0.62004802003502835 1.6229058653116224 1.2091370522975919 0.60403734957799571 0.55420167371630746 0.20019724033772934 0.094137050211430373 0.20205252245068539 0.16726799309253948 20.201693281531334 3.638280576094985 0.95133039914071638 0.60714142024516959 0.41933321533724566 3.9902676749043158 9.6487645716406387
leaf_count=790 4 3000 330 13 428 3 10 155 11 133 12 3 8 4 16 8 8 66 10 7 1 14 4 39 17 11 63 7 215 560
internal_value=-6.44582e-10 -0.0234043 -0.0112385 -0.046004 -0.00477049 0.0407765 -0.000411624 -0.00422056 -0.0137501 0.0211791 0.00736056 0.0338225 0.0231124 0.0297644 0.0107797 0.0508627 0.0487245 -0.00948024 -0.0112423 0.018806 0.0227345 0.02695 0.0507062 0.0524092 0.0314882 -0.00924443 -0.0113492 -0.0132237 -0.0108458 -0.012902
internal_weight=88.1718 56.0189 36.4158 19.6032 31.7566 32.1529 29.1618 26.7866 19.1764 10.8127 5.16625 5.64647 3.98675 3.71287 1.95432 1.75854 1.33427 17.3939 16.7751 4.33951 4.13931 3.93447 21.3402 20.369 3.73242 16.171 15.2197 14.6655 14.0584 13.639
internal_count=5950 5669 2656 3013 1866 281 1438 1428 1273 235 184 51 48 40 28 12 12 943 932 51 44 32 46 43 18 866 855 845 782 775
is_linear=0
shrinkage=0.05


Tree=26
num_leaves=31
num_cat=0
split_feature=0 7 1 1 6 0 1 6 8 1 1 8 1 7 4 1 8 8 0 1 0 1 1 8 7 0 1 1 1 1
split_gain=31.6149 5.86265 3.93173 3.43222 2.53061 2.24748 1.81705 2.20684 1.29041 0.570779 1.37895 1.01403 1.01683 0.901526 0.62674 0.55569 0.558979 0.931954 1.43861 0.683243 0.530717 0.499776 0.669113 0.450227 0.445157 0.943456 0.762026 0.413039 1.56636 0.966163
threshold=1.5000000000000002 1.5000000000000002 0.72914999723434459 0.82925000786781322 0.85126817226409923 4.3499999046325692 0.78435000777244579 0.42759820818901068 5.5000000000000009 0.81325000524520885 0.76884999871253978 5.5000000000000009 0.80895000696182262 1.5000000000000002 1.0000000180025095e-35 0.75554999709129345 7.5000000000000009 6.5000000000000009 2.3500000238418584 0.76265001296997081 2.3500000238418584 0.72935000061988842 0.73155000805854808 5.5000000000000009 2.5000000000000004 2.3500000238418584 0.84415000677108776 0.7511500120162965 0.75094997882843029 0.76104998588562023
decision_type=2 2 2 2 2 2 2 2 2 2 2 2 2 2 2 2 2 2 2 2 2 2 2 2 2 2 2 2 2 2
left_child=1 2 -1 -3 6 9 7 8 -4 10 15 12 -12 20 -11 -2 17 19 -19 -17 -13 -10 -23 -7 25 -16 -27 28 -24 -29
right_child=5 3 4 -5 -6 23 -8 -9 21 14 11 13 -14 -15 24 16 -18 18 -20 -21 -22 22 27 -25 -26 26 -28 29 -30 -31
leaf_value=-0.055133973038093899 -0.063370310943880778 -0.052166168637213586 -0.0552152080358463 0.026240607891372222 -0.053466915597715714 0.017462717756239296 0.041715072179166757 0.018566391802905525 0.036106069814053794 -0.05732298423389412 -0.058097523844916357 -0.064811993763330994 0.051157691318436165 -0.062209381898116506 -0.079370894245081022 -0.066477435165037888 0.059582009511076964 -0.068275014953452715 0.059641016949793506 0.059818954228147203 0.057328068063268893 -0.064197992176099575 -0.010578858635097553 0.053235837864965455 0.058197201769354612 0.041935816515276496 -0.061051026932572229 -0.056834590959664012 0.049689231328642273 -0.0024923746339781719
leaf_weight=4.4322212429251513 0.14431068068370434 16.988106722477827 1.6850258065387738 1.5206916397437442 2.4630803659092626 0.92508839070797222 2.3251376468688241 7.5108472777064881 0.58349379198625939 0.17318221880123008 0.28681652434170268 0.12476831674575795 0.82705990597605705 1.1580327339470384 0.19368741661310229 0.11803824035450894 1.5518358200788496 0.55856798030436028 0.36241999268531799 1.1541463732719419 0.30969807505607605 0.57026000320911663 11.605794117087498 17.865643389523029 1.9239413291215894 2.5809496529400353 0.19305154122412194 1.3794213421642774 1.1885008905082948 2.0094113913364708
leaf_count=790 7 3000 330 13 428 3 10 155 11 11 32 4 2 118 3 5 8 16 1 8 1 66 588 38 4 13 7 174 8 96
internal_value=1.21977e-09 -0.022882 -0.0110571 -0.0457242 -0.00481974 0.0407742 -0.000667607 -0.00438172 -0.0134428 0.0235306 0.0138367 -0.01357 0.0230251 -0.0391665 0.0361545 0.0329076 0.0366176 0.0203686 -0.0179385 0.0481007 0.0222524 -0.00938285 -0.0109672 0.0514747 0.039464 0.0273193 0.0347686 -0.00909141 -0.00498037 -0.0246123
internal_weight=84.7132 54.262 35.7532 18.5088 31.321 30.4512 28.8579 26.5328 19.0219 11.6605 6.59569 2.70638 1.11388 1.5925 5.06481 3.88932 3.74501 2.19317 0.920988 1.27218 0.434466 17.3369 16.7534 18.7907 4.89163 2.96769 2.774 16.1831 12.7943 3.38883
internal_count=5950 5669 2656 3013 1866 281 1438 1428 1273 240 202 157 34 123 38 45 38 30 17 13 5 943 932 41 27 23 20 866 596 270
is_linear=0
shrinkage=0.05


Tree=27
num_leaves=31
num_cat=0
split_feature=0 7 1 1 6 0 1 6 8 1 7 1 8 1 4 1 0 1 1 1 1 8 8 1 8 8 1 1 1 1
split_gain=29.7537 5.55615 3.73211 3.18729 2.36209 2.03146 1.69894 1.96745 1.22584 0.871527 0.737812 1.22705 0.637244 0.778012 0.540275 0.523383 0.485629 0.792074 0.45593 0.550683 0.433315 0.63046 1.84824 0.610828 0.390779 0.386993 0.493116 1.00282 0.632777 0.478979
threshold=1.5000000000000002 1.5000000000000002 0.72914999723434459 0.82925000786781322 0.85126817226409923 3.5000000000000004 0.78435000777244579 0.42759820818901068 5.5000000000000009 0.77134999632835399 1.5000000000000002 0.80895000696182262 6.5000000000000009 0.83994999527931224 1.0000000180025095e-35 0.84415000677108776 2.3500000238418584 0.76884999871253978 0.72935000061988842 0.73155000805854808 0.75734999775886547 7.5000000000000009 6.5000000000000009 0.76265001296997081 5.5000000000000009 9.5000000000000018 0.73194998502731334 0.73334997892379772 0.73355001211166393 0.74024999141693126
decision_type=2 2 2 2 2 2 2 2 2 2 2 2 2 2 2 2 2 2 2 2 2 2 2 2 2 2 2 2 2 2
left_child=1 2 -1 -3 6 10 7 8 -4 -7 16 -12 14 -14 -13 -15 17 20 -10 -20 -2 22 23 -22 -11 26 -21 -28 -29 -30
right_child=5 3 4 -5 -6 9 -8 -9 18 24 11 12 13 15 -16 -17 -18 -19 19 25 21 -23 -24 -25 -26 -27 27 28 29 -31
leaf_value=-0.054897465413551144 -0.063242083909735999 -0.051963575650340613 -0.054962830781952299 0.02429916035546897 -0.05320728682470887 -0.070155370062961506 0.040605473049478313 0.017315165103166726 0.03520859181643831 0.018893438577876641 -0.052196143281327691 -0.057069735146460687 -0.060059169680636182 0.059790619558542341 0.035951332230129474 -0.059579517501295802 0.058963669893683207 -0.063371856389233802 -0.061784831485656312 0.036908787231214317 -0.065553481192535942 0.058840406561805336 -0.066083983911700145 0.059016141377202506 0.05292731954920319 0.02316935918421956 -0.072620505065086299 0.05392729154384121 -0.026280077701180023 -0.0055669044076446378
leaf_weight=4.235199053073301 0.11635111086070793 15.980470545357095 1.6001226098742467 1.4985251971520472 2.3315309616737059 0.14878281205892818 2.2730565015226594 7.4213864714838556 0.55915584228933113 0.88486196100712078 0.72024835017509747 0.16554942168295461 0.49523837072774757 0.35820642113685608 2.7335888165980577 0.12348092719912529 1.527129530906677 0.23544233106076706 0.51119182212278502 0.51991280121728856 0.10807557217776809 1.4842496365308759 0.5042957579717039 1.1002405434846876 18.012027613818645 0.87981836125254709 0.66522879526018996 0.37913388200104137 3.9284181352704755 9.6398182804696244
leaf_count=790 4 3000 330 13 428 4 10 155 11 3 133 10 25 1 10 5 3 8 66 10 4 8 16 8 39 11 63 7 215 560
internal_value=1.11909e-10 -0.0224097 -0.0108972 -0.0454253 -0.00482891 0.0409078 -0.000854047 -0.00446419 -0.0131156 0.0503846 0.0222467 0.00773467 0.018871 -0.0160536 0.0306396 0.02919 0.035388 0.0252424 -0.00919582 -0.0106985 0.0315395 0.0349891 0.0143181 0.0478742 0.0513337 -0.00906754 -0.0109418 -0.0126443 -0.00978374 -0.011564
internal_weight=81.1407 52.423 34.944 17.479 30.7088 28.7178 28.3772 26.1042 18.6828 19.0457 9.6721 4.59631 3.87606 0.976926 2.89914 0.481687 5.07578 3.54865 17.0827 16.5235 3.31321 3.19686 1.71261 1.20832 18.8969 16.0123 15.1325 14.6126 13.9474 13.5682
internal_count=5950 5669 2656 3013 1866 281 1438 1428 1273 46 235 184 51 31 20 6 51 48 943 932 40 36 28 12 42 866 855 845 782 775
is_linear=0
shrinkage=0.05


Tree=28
num_leaves=31
num_cat=0
split_feature=0 7 1 1 6 0 1 8 6 1 1 2 7 1 8 1 1 4 1 0 1 1 8 1 8 8 1 1 1 1
split_gain=27.7094 5.27166 3.56946 2.98687 2.21339 1.85421 1.60878 1.82569 1.4903 1.30061 0.779099 0.759009 0.711681 1.13523 0.542703 0.709696 0.482801 0.475759 0.473294 0.442752 0.712039 0.414604 0.484064 0.392878 0.561308 1.68957 0.533602 0.356428 1.36986 0.96287
threshold=1.5000000000000002 1.5000000000000002 0.72914999723434459 0.82925000786781322 0.85126817226409923 3.5000000000000004 0.78435000777244579 5.5000000000000009 0.51788753271102916 0.72935000061988842 0.77134999632835399 1.4821125268936159 1.5000000000000002 0.80895000696182262 6.5000000000000009 0.83994999527931224 0.73155000805854808 1.0000000180025095e-35 0.84415000677108776 2.3500000238418584 0.76884999871253978 0.73155000805854808 9.5000000000000018 0.75734999775886547 7.5000000000000009 6.5000000000000009 0.76265001296997081 0.7511500120162965 0.75094997882843029 0.76104998588562023
decision_type=2 2 2 2 2 2 2 2 2 2 2 2 2 2 2 2 2 2 2 2 2 2 2 2 2 2 2 2 2 2
left_child=1 2 -1 -3 6 12 7 -4 9 -9 -7 16 19 -14 17 -16 -11 -15 -17 20 23 -10 -23 -2 25 26 -25 28 -18 -29
right_child=5 3 4 -5 -6 10 -8 8 21 11 -12 -13 13 14 15 18 27 -19 -20 -21 -22 22 -24 24 -26 -27 -28 29 -30 -31
leaf_value=-0.05468875436927409 -0.061754520010147633 -0.051785322921243306 -0.054702647139323705 0.023239523751333785 -0.052971345066443645 -0.067857986538069057 0.039784633633295374 0.043682101755443258 -0.062857146153373553 -0.061338548441522693 0.051019851976550783 -0.058642352856004311 -0.051987941372333341 -0.056320703603387118 -0.058999323388728597 0.059545704904084819 -0.0092882030654658186 0.034661772703920561 -0.05856029579897374 0.058680704226484283 -0.061853619760222335 0.016855040687334896 0.058978165228685722 -0.063694043403346806 0.058069264365258569 -0.064295585986805751 0.058235661408508534 -0.056613622867629138 0.048345082614868577 -0.00086702181301870915
leaf_weight=4.0596287499647579 0.10845917277038353 14.965944140916692 1.6904289827216512 1.4556524022482324 2.2055927952751508 0.13889965415001171 2.2310080863535395 1.1307893865741849 0.14611441479064424 0.43375185644254166 17.82861452549696 0.81967727630399245 0.67128415731713165 0.15201345551759082 0.45432326989248384 0.33514755964279175 11.137474609073248 2.6226106323301792 0.11357011273503304 1.4607006907463072 0.21714894846081723 5.1892184265889227 0.78523151576519001 0.098111900500953531 1.418312683701515 0.47503620106726874 1.0503335520625112 1.2678281730040901 1.1362082455307252 1.9910061252303419
leaf_count=790 4 3000 353 13 428 4 10 13 8 60 42 76 133 10 25 1 552 10 5 3 8 96 4 4 8 16 8 166 8 92
internal_value=-5.14208e-10 -0.021847 -0.0106728 -0.0451349 -0.004749 0.0407615 -0.000944868 -0.00447677 -0.000944625 -0.00822125 0.0501009 -0.0117177 0.0224763 0.0078054 0.0187195 -0.0149482 -0.00930871 0.0296771 0.0296532 0.0356912 0.025719 0.0203562 0.0223914 0.0317554 0.0350896 0.015014 0.0478192 -0.00785575 -0.00395293 -0.0225549
internal_weight=77.7901 50.6456 34.224 16.4216 30.1643 27.1446 27.9587 25.7277 24.0373 17.9167 17.9675 16.7859 9.17705 4.34895 3.67767 0.903041 15.9663 2.77462 0.448718 4.8281 3.3674 6.12056 5.97445 3.15025 3.04179 1.62348 1.14845 15.5325 12.2737 3.25883
internal_count=5950 5669 2656 3013 1866 281 1438 1428 1075 967 46 954 235 184 51 31 878 20 6 51 48 108 100 40 36 28 12 818 560 258
is_linear=0
shrinkage=0.05


Tree=29
num_leaves=31
num_cat=0
split_feature=0 7 1 1 6 0 1 8 6 1 2 1 3 1 8 1 1 1 7 1 8 1 1 1 1 1 1 1 1 1
split_gain=25.7249 4.97282 3.35933 2.79487 2.07098 1.70451 1.53515 1.6883 1.35799 1.19805 0.702028 0.69856 0.508358 0.736969 1.15219 0.647057 0.62444 0.4847 1.41156 0.455256 0.419942 0.418692 1.48049 0.943741 1.03848 0.779627 0.766247 0.832309 0.585727 0.88411
